/*This file is automatically generated from a Pytorch model*/

#ifdef HAVE_CONFIG_H
#include "config.h"
#endif

#include "nnet.h"
#include "nnet_data.h"

static const NN_WEIGHT gru1_weights[12288] = {
   0.9404640197753906, 1.1992441415786743, -0.4203800559043884, 0.07016614824533463, 0.7773596048355103, 0.44048961997032166, 0.06877446174621582, 0.7194096446037292,
   -0.46028903126716614, 1.1595757007598877, -0.726068913936615, 0.24134527146816254, 0.2587299346923828, 0.33235740661621094, -0.3159102201461792, -0.32928550243377686,
   -0.19162017107009888, 0.40019768476486206, 0.5596786141395569, -1.2551335096359253, -0.3651805818080902, 0.4655246436595917, 0.26195797324180603, 1.3060823678970337,
   -0.13622984290122986, 0.24479110538959503, 0.8296308517456055, 0.23020268976688385, -0.5978842973709106, -0.35096660256385803, -0.3137812316417694, 0.07596276700496674,
   0.20001395046710968, -1.3592875003814697, -0.298541396856308, 0.7695446014404297, -0.010648769326508045, 1.8681086301803589, 0.4245089590549469, 0.05850934237241745,
   -0.5037571787834167, 0.23402497172355652, -0.9058501124382019, -1.779869556427002, -0.08683309704065323, 0.6095267534255981, 0.04603077843785286, 0.48170962929725647,
   -0.2768954932689667, 0.3117832541465759, 0.18343698978424072, 0.11745256185531616, 1.3034101724624634, -0.22212524712085724, 0.09432478994131088, -0.18763402104377747,
   -1.198212742805481, 0.24624568223953247, -0.7223204374313354, 0.5782418251037598, 1.7228617668151855, 0.2730560004711151, 0.5056268572807312, 1.4644674062728882,
   -0.33857262134552, 1.6441831588745117, -1.1712459325790405, -1.621105432510376, 1.5222258567810059, 0.618499755859375, 1.9991669654846191, 0.6838767528533936,
   -0.39326536655426025, -0.17339514195919037, -0.4527375400066376, -1.4371875524520874, 0.7941959500312805, -0.5902549624443054, 0.6417474150657654, 0.7519727945327759,
   1.0638004541397095, 0.5044495463371277, 0.07706344127655029, 0.8158656358718872, 0.9129800796508789, 0.02840815857052803, -0.481732577085495, 0.1877407729625702,
   0.5514810085296631, 0.49592575430870056, 0.3307967483997345, 0.5688823461532593, 0.9744510650634766, -0.6632466912269592, 0.36667943000793457, 0.08519744873046875,
   1.30437433719635, -1.18625807762146, -0.7021864056587219, 0.448102742433548, 0.2305903434753418, 0.25918862223625183, -0.14272184669971466, 2.264577627182007,
   -0.0718783587217331, 0.4197250306606293, 0.8327520489692688, -0.1908387690782547, 0.9225407242774963, 2.843137502670288, 0.005548976827412844, -0.07945235073566437,
   1.1968202590942383, 0.6604691743850708, 0.9124359488487244, -0.7407220602035522, -1.071761965751648, -0.2994663417339325, 1.9212977886199951, -0.6159982681274414,
   -0.570963978767395, -0.619543194770813, 1.2344285249710083, 0.7710893750190735, 0.3190820813179016, -0.04099966958165169, -0.9775018692016602, -0.49500572681427,
   -0.24214404821395874, 0.8657400012016296, -0.23814521729946136, -0.843718409538269, 0.5412539839744568, -0.5151724219322205, 0.4534832239151001, -0.6488074660301208,
   -0.5849471688270569, 1.2078871726989746, -0.3961257338523865, 0.8008662462234497, 0.1401727944612503, 0.37832406163215637, -0.24029074609279633, 0.7202910780906677,
   1.0882887840270996, -0.3310815691947937, -0.8243975639343262, 0.6695274114608765, 0.8879175782203674, -0.4606098234653473, 0.04921145737171173, -0.42971283197402954,
   0.21332411468029022, -0.06052757054567337, 0.30024072527885437, 0.09719452261924744, 0.3551129102706909, 0.23034389317035675, 1.0007973909378052, 0.4889618456363678,
   0.7157446146011353, -0.3600419759750366, -0.12776197493076324, -0.505768358707428, 0.7977710962295532, -0.2980327904224396, -0.24928870797157288, -0.8162404298782349,
   -0.5259954929351807, -0.3189689815044403, -0.7836040258407593, 1.226793646812439, -0.022890383377671242, -0.8584216833114624, -0.45817798376083374, -0.8548040986061096,
   -1.025090217590332, 1.002803921699524, 0.12655280530452728, -0.28170907497406006, 0.31371352076530457, -0.38959479331970215, -1.013056755065918, -0.5655907392501831,
   0.42492058873176575, 0.10853122174739838, -1.111318826675415, 1.2208038568496704, 0.06526945531368256, 0.2929081916809082, 0.7142758369445801, -0.4683499038219452,
   -0.46590456366539, -0.34467440843582153, 0.2719593942165375, -0.3857114017009735, 0.1729719489812851, -0.15750594437122345, -0.6675479412078857, -0.11091531068086624,
   0.04139966145157814, 0.04956670477986336, 0.3638503849506378, 0.10836449265480042, 0.19204935431480408, -0.5732824206352234, -0.37311169505119324, 0.4965512752532959,
   -0.4039357900619507, -0.5789640545845032, -0.2038402259349823, -1.0177247524261475, -1.0097309350967407, 0.3205854892730713, 0.290669709444046, 0.2871399521827698,
   0.039133477956056595, -0.019646920263767242, 0.21213771402835846, 1.0606433153152466, 0.42901915311813354, -0.4641594886779785, 0.3941152095794678, -0.0982661247253418,
   -0.6417025327682495, -1.7376282215118408, -0.07260550558567047, 0.06585830450057983, -0.18553975224494934, -0.06379800289869308, 0.016923043876886368, -0.26386314630508423,
   0.7278892397880554, 0.6037728190422058, -0.17325061559677124, -0.7562235593795776, 1.281476616859436, 0.33090007305145264, -0.3638186752796173, -0.004267340060323477,
   -0.22027075290679932, -0.5011827349662781, -0.1453794687986374, 0.039614927023649216, 0.5000420212745667, 0.1491694301366806, -0.5545838475227356, 0.20476792752742767,
   -0.9214951395988464, 0.4141737222671509, -0.29377779364585876, 0.31800177693367004, 0.7018364071846008, 0.18899406492710114, 0.7361087799072266, 0.0035445247776806355,
   -0.4466816186904907, 1.4926742315292358, -0.49687790870666504, -0.4382617473602295, 0.6694818139076233, -0.11941087990999222, 0.6374988555908203, 0.05879991501569748,
   -0.11952478438615799, -0.5348512530326843, -0.9642187356948853, 0.33902955055236816, 1.0740872621536255, 0.6174042224884033, 0.9645900726318359, -0.2956281304359436,
   -1.2253010272979736, 0.3171465992927551, 0.7526225447654724, 0.1295946091413498, 0.19612270593643188, -0.6915761232376099, -0.7869530916213989, 0.12636730074882507,
   -0.7852107882499695, 0.7976165413856506, 0.4685431718826294, 0.2681620419025421, -0.4815828800201416, -0.2383042722940445, 0.12555824220180511, -0.40493834018707275,
   0.6205020546913147, -0.35259518027305603, -0.4780247211456299, 0.734944760799408, 0.14461590349674225, -0.02103235572576523, -0.48658356070518494, -0.6455418467521667,
   -0.06778612732887268, 0.04661582037806511, -0.27419382333755493, -0.3028137981891632, -1.4882848262786865, 2.1046924591064453, 0.4147361218929291, 0.4073084890842438,
   1.4110156297683716, 0.27938807010650635, 0.24711382389068604, 1.5981024503707886, -0.2719195485115051, -0.3279118537902832, 0.00922318734228611, 0.953726053237915,
   -0.01984388567507267, -0.8699607849121094, 0.06500478833913803, 0.00732807070016861, 0.26241534948349, -0.3411291241645813, -0.5868227481842041, -0.5873585939407349,
   -0.1860271692276001, -0.1480029970407486, 0.34973442554473877, 0.05369162932038307, 0.015655824914574623, -0.24834756553173065, 0.005522658117115498, -0.44111767411231995,
   0.21704646944999695, 0.25285661220550537, 1.089644193649292, -0.5096569657325745, 0.39489614963531494, -0.15272489190101624, -0.0018313601613044739, -0.13958844542503357,
   0.1432517170906067, -0.19840069115161896, -0.2778749465942383, 0.09799375385046005, 0.47549542784690857, 0.015631593763828278, 1.285513162612915, -0.31022489070892334,
   -0.4623374938964844, -0.7136186957359314, -0.0959853008389473, 0.7341950535774231, -0.653535008430481, -0.5092901587486267, 0.7307683825492859, 0.17355604469776154,
   -0.13759009540081024, -0.045111678540706635, 0.10290275514125824, -0.26583579182624817, -0.051603130996227264, -0.051377102732658386, -0.002290894743055105, 0.8048155307769775,
   0.09558948129415512, 0.14236833155155182, -0.15648511052131653, 0.6066126227378845, -0.9844476580619812, -0.1481383740901947, 0.6568803787231445, -0.5076107978820801,
   0.2628393769264221, -0.2476203888654709, 0.04545997828245163, -0.7012291550636292, 0.06880530714988708, -0.046867337077856064, -0.1512337625026703, 1.027696967124939,
   0.03691352158784866, -0.1760919690132141, -0.18708102405071259, -0.05164448171854019, -0.19844208657741547, 0.2014753669500351, 0.486289918422699, -0.05136285349726677,
   -0.04163418710231781, 0.03620593249797821, 0.09352616965770721, 0.09803156554698944, 0.07637859880924225, 0.05696451663970947, 0.021952122449874878, -0.07309769093990326,
   0.04932025074958801, 0.03353433310985565, 0.07486200332641602, 0.07933932542800903, 0.02195824682712555, -0.1115475594997406, 0.04261519014835358, -0.017389550805091858,
   -0.01235419511795044, -0.030547216534614563, 0.019214048981666565, -0.012159734964370728, -0.12346342206001282, 0.07290413975715637, 0.07471969723701477, -0.03242674469947815,
   -0.06979909539222717, -0.08672940731048584, -0.06913721561431885, 0.11132515966892242, 0.06845147907733917, 0.016225069761276245, -0.057897135615348816, 0.02023477852344513,
   -0.11155427992343903, 0.031299322843551636, -0.07241131365299225, 0.06211701035499573, 0.10084423422813416, 0.09474284946918488, 0.09220653772354126, -0.009637042880058289,
   -0.12211793661117554, -0.09008443355560303, 0.021680012345314026, -0.054323479533195496, -0.03628842532634735, 0.06445877254009247, 0.0320403128862381, -0.08852344751358032,
   0.039293184876441956, -0.07257547974586487, -0.06102555990219116, -0.05451241135597229, -0.021114841103553772, 0.00039727985858917236, -0.020825013518333435, 0.03450089693069458,
   0.009029567241668701, 0.04137791693210602, -0.01747030019760132, 0.06506277620792389, 0.09865501523017883, 0.05083315074443817, 0.06972616910934448, 0.0630517452955246,
   -0.06464718282222748, 0.03788018226623535, -0.06369934976100922, 0.06747719645500183, -0.08256582915782928, -0.05442790687084198, 0.022750109434127808, 0.10985338687896729,
   -0.0018667131662368774, 0.02435450255870819, 0.0815618634223938, -0.09474140405654907, -0.05371469259262085, -0.023333638906478882, 0.014353781938552856, -0.02860526740550995,
   -0.09188632667064667, 0.002136901021003723, 0.06618157029151917, 0.025332286953926086, 0.015556946396827698, 0.08097058534622192, -0.016332536935806274, -0.07930289208889008,
   0.05752800405025482, 0.05035392940044403, 0.03641188144683838, 0.12275949120521545, -0.09922167658805847, 0.09033183753490448, -0.02820633351802826, -0.026257440447807312,
   -0.03442928194999695, -0.06527818739414215, -0.08198274672031403, 0.06925681233406067, -0.027793392539024353, 0.027641043066978455, 0.027284786105155945, -0.06856560707092285,
   0.11758628487586975, -0.08532249927520752, 0.07998327910900116, 0.11636538803577423, 0.03520403802394867, 0.006359398365020752, -0.06873393058776855, -0.007958903908729553,
   -0.02483496069908142, 0.01731586456298828, 0.031226471066474915, 0.018949612975120544, -0.0972047746181488, -0.0035779476165771484, 0.0978655070066452, 0.04594533145427704,
   -0.10790297389030457, -0.04855877161026001, 0.016765668988227844, 0.01276165246963501, -0.002043008804321289, -0.0325823575258255, 0.030086800456047058, 0.10751309990882874,
   0.028612598776817322, 0.045544132590293884, 0.05192267894744873, -0.06589162349700928, 0.07339641451835632, -0.08771532773971558, -0.1195080578327179, -0.07878927886486053,
   -0.028363078832626343, -0.08148737251758575, 0.029171183705329895, 0.09208640456199646, 0.041145503520965576, -0.09367363154888153, 0.06237758696079254, 0.10390850901603699,
   -0.010169953107833862, 0.048421710729599, -0.1231313943862915, -0.01217101514339447, 0.09659482538700104, 0.044427186250686646, 0.12476718425750732, 0.11015842854976654,
   0.07450684905052185, 0.1185208410024643, -0.11171655356884003, -0.0387440025806427, -0.09134136140346527, -0.0827333927154541, -0.056734710931777954, 0.11782015860080719,
   0.03560732305049896, -0.06121046841144562, -0.06891131401062012, 0.03598344326019287, -0.009583428502082825, 0.10330702364444733, -0.09831076860427856, -0.09061802923679352,
   -0.0711403638124466, -0.0585714727640152, 0.11804963648319244, -0.038136109709739685, -0.014302104711532593, -0.025147512555122375, 0.05928656458854675, -0.10178437829017639,
   0.021997064352035522, -0.11771635711193085, 0.03434795141220093, -0.09750242531299591, 0.034877508878707886, 0.0573422908782959, -0.09173886477947235, 0.06673993170261383,
   0.04645715653896332, 0.023293152451515198, 0.026597753167152405, -0.03449656069278717, 0.1237163096666336, 0.06849905848503113, 0.10399536788463593, -0.034040361642837524,
   -0.8251636624336243, 0.2013894021511078, -2.006380796432495, -0.13010373711585999, -0.06727713346481323, -0.402319073677063, -0.07825492322444916, -0.2742031514644623,
   -1.2379072904586792, -0.2879073917865753, 1.3589637279510498, 0.257387638092041, -0.11488416790962219, 0.1897873729467392, -1.1435989141464233, -1.2962263822555542,
   0.04022318124771118, 0.45695334672927856, -0.9062843322753906, 0.37000346183776855, 0.7021386623382568, -0.2063443809747696, 0.9069050550460815, 0.23870238661766052,
   -0.7744910717010498, -0.9122393727302551, -0.44858813285827637, 0.07002807408571243, 1.464893102645874, 0.5472590923309326, 0.6090016961097717, 0.361388236284256,
   -0.7437753081321716, 0.4969218671321869, -1.7261666059494019, 0.06516528874635696, -1.9447581768035889, -0.5368613600730896, 0.48960357904434204, 0.29318779706954956,
   0.0875873789191246, 1.0683033466339111, 1.037292242050171, -0.07958541065454483, 0.7913133502006531, -0.08633147180080414, -0.17895975708961487, 0.1737196147441864,
   0.372363418340683, -0.8020796775817871, -0.708285391330719, 0.030905412510037422, 0.9491244554519653, 0.6971269249916077, 0.29070183634757996, -0.5881786942481995,
   0.9103772640228271, 0.7823469042778015, 0.8933979272842407, -0.27259594202041626, -0.7215413451194763, -1.2950221300125122, -0.2093697339296341, -0.4643464982509613,
   -0.13359300792217255, -0.41762077808380127, -0.09044752269983292, 0.26012203097343445, -1.126307725906372, 0.9560868740081787, -0.11203105747699738, -0.06436577439308167,
   -1.064759373664856, -0.36270931363105774, -1.2954496145248413, -0.10530369728803635, -0.04849780350923538, -1.3815070390701294, -0.1118171289563179, -0.4258022606372833,
   -0.5863794684410095, -0.44537147879600525, 0.011617212556302547, -0.4801803231239319, 0.4196653664112091, -1.5828652381896973, -0.5152013897895813, 1.024474024772644,
   -0.9601012468338013, -0.535145103931427, 0.9888110756874084, 0.06777902692556381, -0.9248053431510925, -0.9895515441894531, -0.35280144214630127, -0.14309731125831604,
   -0.7565951943397522, -0.029476892203092575, 0.4991128742694855, 0.8072667121887207, -0.04036223143339157, 0.031519319862127304, -0.5981807112693787, -1.8662245273590088,
   1.049482822418213, -0.45551949739456177, -1.0415010452270508, 0.9389614462852478, -0.950187623500824, -0.115566186606884, -0.3470158874988556, -1.1456948518753052,
   0.23679408431053162, -1.4467500448226929, -0.8087626099586487, 0.5235832929611206, -0.09304352104663849, -0.24777720868587494, -0.6417640447616577, -1.1361281871795654,
   1.5528662204742432, -0.93514484167099, -0.05054781958460808, 0.29806315898895264, -0.29415133595466614, 0.12051495164632797, -0.6587468981742859, -0.395122766494751,
   -0.19406718015670776, -0.05007784813642502, 0.118213951587677, -0.037382058799266815, 0.10522547364234924, -0.27667808532714844, -0.20085719227790833, 0.38732433319091797,
   0.167093425989151, 0.21721570193767548, -0.9512003660202026, 0.652776837348938, 0.02109196037054062, 0.22690340876579285, -0.18154965341091156, 0.5639074444770813,
   0.20905694365501404, 0.13534986972808838, -0.6876358389854431, -0.07065611332654953, 0.09452637284994125, 0.014585644006729126, 0.3973340690135956, 0.012392506003379822,
   0.12810268998146057, -0.3216232657432556, 0.1644793450832367, 0.7526714205741882, 0.052590686827898026, -0.8289481997489929, -0.31134262681007385, 0.1385136991739273,
   -0.2785716950893402, 0.21958857774734497, -0.3261142671108246, -0.0663529634475708, 0.21628594398498535, 0.4656679034233093, 0.21695198118686676, 0.35838454961776733,
   -0.011728824116289616, -0.15026696026325226, 0.3800669014453888, 0.06503817439079285, 0.4356609880924225, 0.22535142302513123, -0.11047723144292831, -0.2790437936782837,
   0.04357641935348511, 0.531356155872345, 0.17339558899402618, 0.26417893171310425, 0.17242123186588287, -0.29770031571388245, -0.020936014130711555, 0.45648857951164246,
   0.4903341233730316, -0.07471814751625061, -1.3288058042526245, -0.07878721505403519, 0.3502645790576935, -0.6883869767189026, 0.020241552963852882, -0.251752644777298,
   -0.06710950285196304, 0.013729117810726166, 0.03298569843173027, -0.03544169291853905, -0.09384237229824066, -0.00144131388515234, 0.12648282945156097, -0.14389902353286743,
   -0.032878756523132324, 0.05737817659974098, -0.15299823880195618, -0.047613006085157394, -0.08253557980060577, 0.007896799594163895, 0.06165749952197075, 0.0532413050532341,
   0.023854756727814674, 0.003935740329325199, -0.026129433885216713, -0.07285445183515549, -0.03397168219089508, -0.0690636858344078, 0.05055844038724899, 0.025814665481448174,
   -0.004044544883072376, -0.12616097927093506, 0.00968876201659441, 0.042726241052150726, -0.07314885407686234, 0.00600710604339838, 0.027563421055674553, -0.023426804691553116,
   0.09096194058656693, -0.041559793055057526, -0.045384373515844345, -0.10997555404901505, -0.135426327586174, -0.042264968156814575, 0.07205038517713547, 0.06658552587032318,
   -0.011191758327186108, 0.06139041483402252, -0.1343153864145279, -0.10738962888717651, 0.07779209315776825, -0.08951692283153534, 0.0397481806576252, 0.08057177066802979,
   0.02612386830151081, -0.11178568750619888, -0.13393829762935638, 0.09164413064718246, 0.01553418766707182, 0.0335443913936615, -0.08372046053409576, -0.054901208728551865,
   -0.08142761141061783, -0.015013483352959156, 0.004813783336430788, -0.026389984413981438, 0.028527826070785522, 0.018735889345407486, -0.011141401715576649, -0.05596756935119629,
   0.006473842076957226, 0.027868324890732765, -0.045597728341817856, 0.013179820962250233, -0.023605545982718468, -0.07213269919157028, -0.05464349314570427, -0.035724982619285583,
   -0.13043212890625, -0.0723312646150589, -0.03154469281435013, 0.15213589370250702, 0.11345186084508896, -0.07590117305517197, -0.1315528303384781, 0.04765623062849045,
   -0.09676799923181534, -0.0851401686668396, -0.13157466053962708, 0.10265751928091049, 0.1380501240491867, -0.005907630547881126, 0.07267196476459503, -0.03503585606813431,
   -0.1134737879037857, 0.032581426203250885, 0.1390816569328308, 0.048947326838970184, -0.049983102828264236, 0.1405399888753891, 0.04954172670841217, -0.009111335501074791,
   0.0010611069155856967, -0.0776485875248909, 0.011127916164696217, 0.13285930454730988, 0.11176039278507233, 0.060745831578969955, 0.048152875155210495, -0.03850286826491356,
   0.027237651869654655, -0.0774698331952095, 0.08522555232048035, -0.1437007188796997, 0.10580054670572281, -0.034091878682374954, 0.019079776480793953, 0.06884478032588959,
   0.1513388603925705, -0.07145124673843384, 0.07108712196350098, 0.06811081618070602, 0.014072389341890812, 0.030418045818805695, 0.02066810429096222, -0.06516913324594498,
   -0.018921423703432083, -0.013530733995139599, -0.12083588540554047, 0.05381665378808975, 0.08066894859075546, 0.085413359105587, 0.025592850521206856, -0.06761900335550308,
   -0.11571404337882996, 0.022304601967334747, 0.01775515265762806, -0.028366006910800934, 0.14387960731983185, -0.05500910058617592, -0.09496547281742096, 0.023043053224682808,
   0.09882978349924088, -0.09524380415678024, -0.05769570916891098, -0.023019244894385338, 0.02812841534614563, -0.07492125034332275, 0.085164375603199, 0.06384299695491791,
   -0.09945423901081085, -0.01666627638041973, -0.04419953003525734, -0.12024100869894028, -0.07507329434156418, -0.06844943761825562, -0.08233034610748291, -0.12578175961971283,
   0.093516506254673, -0.05151677876710892, 0.005784084089100361, -0.012251744046807289, -0.09071958810091019, 0.0010334403486922383, -0.053047213703393936, 0.06402016431093216,
   -0.0033864579163491726, -0.06557804346084595, -0.0530523844063282, -0.06566424667835236, 0.04233826696872711, -0.08717653155326843, -0.15076598525047302, -0.003950951155275106,
   0.09573360532522202, 0.02433290146291256, -0.09208769351243973, 0.12105017900466919, -0.001408640993759036, -0.030738914385437965, 0.01789732463657856, 0.07483934611082077,
   0.06262475997209549, -0.07499002665281296, -0.09393284469842911, -0.028798451647162437, 0.04717203974723816, -0.09718945622444153, -0.08396237343549728, 0.10093729943037033,
   0.14425212144851685, 0.03256272152066231, -0.12491939216852188, -0.08405148237943649, -0.06731228530406952, -0.05883428081870079, 0.040133122354745865, -0.11549437791109085,
   -1.2370792627334595, 0.6271432042121887, -0.1188918948173523, 0.664650022983551, -0.5682122707366943, 0.32140061259269714, -0.2955833673477173, 0.859749972820282,
   -0.39361560344696045, -0.554766058921814, 0.6576317548751831, -0.9013378620147705, -0.8430452942848206, 0.009558342397212982, -1.5195986032485962, 2.871453046798706,
   0.3286145031452179, -0.4755004346370697, -0.2736205458641052, 0.046510249376297, -1.8613611459732056, -0.06045705825090408, 0.10955274850130081, 0.4123889207839966,
   -0.9916619658470154, -0.5012204647064209, -1.0199477672576904, 0.34213319420814514, 1.4420814514160156, 0.2756563723087311, 1.0442442893981934, -0.5711302757263184,
   -1.43306565284729, 0.3958148956298828, -1.908919095993042, -0.0010858906898647547, -0.2569239139556885, -0.28420040011405945, -1.7852158546447754, -0.8223629593849182,
   -0.39882180094718933, 0.8096039891242981, 0.5272205471992493, 0.23275905847549438, 1.5504741668701172, 1.1188188791275024, 0.5849921107292175, 1.2893027067184448,
   0.6350480318069458, 0.14784961938858032, -0.2915952801704407, -0.3873754143714905, 0.45973414182662964, 0.7684962749481201, -0.4947586953639984, -0.21983106434345245,
   -0.17190705239772797, -1.7978230714797974, 0.19625918567180634, -0.22492742538452148, -0.4208267331123352, 0.0740320235490799, -0.3486183285713196, -0.21493647992610931,
   -0.07087527215480804, 1.5341883897781372, 0.34625518321990967, -0.2848565876483917, 0.13090895116329193, -2.28008770942688, 0.5837247371673584, -0.14124909043312073,
   0.6205267310142517, -0.30027928948402405, -0.9802398085594177, -1.3162767887115479, -1.0696669816970825, -1.0358679294586182, 0.8965533375740051, 0.061247386038303375,
   0.25909534096717834, 0.005116020794957876, 0.4343521296977997, -1.4499040842056274, 2.4436378479003906, -1.5895192623138428, 1.1748064756393433, -0.34288841485977173,
   -0.6459143161773682, 0.9494171738624573, 1.3403900861740112, 0.9374986290931702, -0.4534299075603485, -1.2288305759429932, 0.2852472960948944, -0.3274877965450287,
   -0.0533362440764904, 1.2310296297073364, 0.11373300850391388, 1.852403163909912, 0.451143354177475, 0.5564888715744019, -0.4782220721244812, 0.01910391077399254,
   0.5610165596008301, -0.5157694220542908, 0.9541873335838318, -0.5730050206184387, 0.22650054097175598, 0.3839646875858307, -0.6837360858917236, 1.2234255075454712,
   1.2528154850006104, 2.92035174369812, 0.0607818067073822, 1.9388903379440308, -4.615440368652344, 0.41991469264030457, -0.4678371846675873, -0.6582990884780884,
   0.7283738851547241, 0.651138186454773, 1.7982723712921143, -0.7149408459663391, -0.7885105013847351, 1.5322532653808594, -0.8467966318130493, 0.9592717289924622,
   -0.25852131843566895, -0.12391790747642517, -0.1797759234905243, 0.1659872829914093, 0.2935907542705536, 0.1578766256570816, 0.4259893298149109, -0.16322419047355652,
   -0.540739119052887, -0.24984927475452423, -0.23674674332141876, -0.29266539216041565, 0.06944213062524796, 0.2925456762313843, -0.9179983139038086, -0.4942748546600342,
   0.34985095262527466, -0.17159093916416168, -0.37998923659324646, -0.28697189688682556, 0.9019108414649963, -0.22061480581760406, 0.028267700225114822, -0.039984021335840225,
   0.16578583419322968, 0.4633302390575409, -0.3941614329814911, 1.0371845960617065, -0.04603965952992439, 0.704420268535614, -1.0983920097351074, -0.6685431003570557,
   0.5709453225135803, -0.3977906405925751, 0.762954831123352, 0.01808009296655655, 0.03398283198475838, -0.03527787700295448, -0.13142457604408264, 0.20774175226688385,
   -0.4008612632751465, -0.24486121535301208, 0.06703604012727737, 1.0641268491744995, 0.7238135933876038, -0.054451148957014084, 0.13876277208328247, -0.04791673645377159,
   1.2050549983978271, -0.4101511538028717, 0.08516624569892883, -0.4032861888408661, -0.249410480260849, -0.510769248008728, -0.13947346806526184, -0.3838757872581482,
   -0.0858636125922203, -0.25046953558921814, -0.9635753631591797, 0.31475406885147095, 0.4102247655391693, 0.15713174641132355, 0.6030063033103943, -0.40745577216148376,
   -0.7897651791572571, 0.3278051018714905, 0.6034950017929077, 0.20431052148342133, -0.08501985669136047, 0.8986075520515442, 0.2770943343639374, 1.0240230560302734,
   -2.0952951908111572, 0.30306994915008545, 2.153792142868042, 0.7243283987045288, 0.9589818716049194, -0.3169398903846741, -1.0445927381515503, 1.2634752988815308,
   0.935092568397522, 0.9144566059112549, 0.5759119987487793, 0.7153199315071106, -1.695155143737793, 0.16927695274353027, 0.189845472574234, 0.37734255194664,
   -0.09524555504322052, 0.11394911259412766, -0.4159778356552124, -0.03647130727767944, 0.10974332690238953, 0.6417324542999268, -0.37503284215927124, 0.2837393581867218,
   0.3614542484283447, -0.5369888544082642, -0.609703004360199, -0.20157867670059204, -0.7929196953773499, 0.9802785515785217, -0.2661765217781067, 0.1315777748823166,
   0.7306577563285828, 0.6577022671699524, 0.19791918992996216, 0.5697743892669678, 0.2958639860153198, 0.08331494778394699, 0.7606967091560364, -0.760425865650177,
   1.2165679931640625, -1.1778650283813477, 0.5146628618240356, 0.04996185004711151, 0.009579591453075409, -0.7098180055618286, 0.22761033475399017, -0.7592647671699524,
   -0.3217695653438568, -1.2594174146652222, 1.5826475620269775, 0.7686011791229248, 0.5373589992523193, 0.48261451721191406, 0.4185001850128174, 0.23417165875434875,
   -0.2532801926136017, -0.12273326516151428, 0.6743545532226562, 0.960699200630188, 1.3335216045379639, -0.005259821191430092, 1.6237893104553223, 0.4513092041015625,
   0.4784807860851288, -0.47900205850601196, 0.3822444975376129, -2.0273776054382324, 0.21282468736171722, -0.869229257106781, 1.4153521060943604, -0.5563443303108215,
   -0.1352669894695282, -1.1755818128585815, -0.6008478403091431, 0.6718932390213013, -0.9424206018447876, -0.28313058614730835, 0.5428102016448975, 3.0412180423736572,
   0.0647910088300705, -0.7524275779724121, 1.0138906240463257, -0.2592424750328064, 0.9594926834106445, -1.634556770324707, -0.3955587148666382, -0.41731294989585876,
   1.3425482511520386, 0.11955533176660538, 0.11258427798748016, 0.2573900520801544, 0.8119717240333557, -0.16246134042739868, -0.34927499294281006, -0.10579347610473633,
   0.6071927547454834, 1.2020319700241089, 0.12315042316913605, 0.018509602174162865, -0.10734882950782776, 0.8012533783912659, -0.7663471102714539, 0.34665873646736145,
   -1.0286799669265747, -1.8219577074050903, -0.9274622201919556, -1.1678990125656128, -1.9737919569015503, 1.2831557989120483, 0.1101517528295517, 0.23344270884990692,
   0.9453837275505066, -1.3435348272323608, 1.5720912218093872, 0.5135374069213867, 0.15380427241325378, 0.18781134486198425, -0.6664591431617737, -0.5010332465171814,
   -0.07327993214130402, -0.0014021617826074362, -0.26868966221809387, 0.0005148692871443927, 0.11988198757171631, -0.26231667399406433, -0.23809264600276947, -0.016824040561914444,
   0.149966299533844, 0.35084861516952515, 0.07226713001728058, -0.020010652020573616, 0.16062794625759125, 0.5141902565956116, -0.6862072348594666, -0.02060503512620926,
   0.6183182001113892, 0.10073260217905045, -0.9413535594940186, 0.21363838016986847, -0.5050140023231506, 0.22569747269153595, 0.16522271931171417, 0.07443831861019135,
   0.30039939284324646, -0.24951212108135223, 0.471411794424057, 0.32365015149116516, -0.26035305857658386, -0.3304622769355774, -0.08660060167312622, 0.21317459642887115,
   -0.011722072958946228, 0.2751934230327606, 0.2791828513145447, -0.6782830953598022, -0.22278055548667908, 0.47141459584236145, 0.43585214018821716, -0.2598322629928589,
   0.3040772080421448, 0.19548912346363068, 0.6298324465751648, 0.24784916639328003, 0.3897778391838074, 0.215953528881073, 0.22128285467624664, -0.2264327108860016,
   0.14453312754631042, 0.3013008236885071, 0.14144057035446167, -0.5174182653427124, 0.1032969132065773, -0.5816916227340698, 0.021106021478772163, -0.8897213339805603,
   0.13291753828525543, 0.1818515956401825, -0.9449447989463806, 0.4193582236766815, 0.42198997735977173, -0.42387256026268005, 0.3478931784629822, -0.23183436691761017,
   -0.8585525155067444, 0.5466968417167664, 1.5202326774597168, 0.0740404725074768, 0.8355371356010437, 0.08364301174879074, -0.1838633120059967, 0.6331954002380371,
   -0.13663795590400696, -0.2228327840566635, 0.43726199865341187, -0.23828808963298798, -0.8264967203140259, -1.7137932777404785, -0.780910074710846, -2.6387362480163574,
   0.1120476946234703, -0.40938276052474976, -0.15495167672634125, 1.976036787033081, 1.3192038536071777, -0.5358720421791077, 1.0075697898864746, 1.1345393657684326,
   -0.877494215965271, 0.5997757911682129, -0.2904687523841858, 0.05112777650356293, 0.534534215927124, 0.3499588966369629, 0.18827731907367706, -0.4650038778781891,
   0.12004872411489487, -2.127755880355835, 1.0805939435958862, -0.23135623335838318, 0.2081017792224884, -3.1711153984069824, -0.7329426407814026, -0.12352187931537628,
   1.5055164098739624, 0.5692135095596313, -1.8755775690078735, -1.4385910034179688, 1.1231695413589478, 0.14211775362491608, -0.5300642848014832, 0.04470209404826164,
   -1.2609835863113403, -0.569039523601532, 0.8865237236022949, -0.16580237448215485, -0.6145428419113159, 0.4126114547252655, 0.2567765414714813, -0.17697225511074066,
   -1.043342113494873, -0.03769320622086525, 0.3436168432235718, 0.27778059244155884, 0.33550724387168884, 1.5313559770584106, 0.7825472950935364, -1.863978624343872,
   -1.4910566806793213, -1.5652714967727661, -0.02934458665549755, -2.6942226886749268, 1.3312681913375854, -0.13629713654518127, 2.488433837890625, 0.3757859468460083,
   -1.4835243225097656, -0.471889853477478, 0.41557741165161133, -1.2638698816299438, 0.3954678773880005, -1.1443816423416138, 0.16669103503227234, 1.612327218055725,
   0.16463421285152435, 0.006927168928086758, 0.6779706478118896, -0.1923363357782364, -1.3774726390838623, 0.059058524668216705, 3.6653223037719727, -0.13644811511039734,
   -0.18813224136829376, -2.2223474979400635, 2.197374105453491, 0.7625841498374939, -0.9031001329421997, 2.9882307052612305, 0.3282201886177063, 3.14969801902771,
   0.08255264163017273, 0.12106067687273026, -0.5268756151199341, -0.63826984167099, 0.8421147465705872, -1.1031476259231567, 1.698883295059204, 0.6226922869682312,
   -0.18631009757518768, 0.6260136365890503, 0.2746535837650299, -1.6913836002349854, -0.7073572278022766, -1.129040241241455, 0.38427749276161194, 0.17959283292293549,
   0.6834019422531128, 4.28014612197876, -1.115606427192688, 0.3612499535083771, -0.19021999835968018, 3.166903018951416, -1.1969813108444214, 3.0544662475585938,
   1.5311651229858398, -3.7855722904205322, 1.372251272201538, -1.1276977062225342, 0.41611799597740173, -1.0567455291748047, -1.1635773181915283, -2.421421766281128,
   -0.7333769798278809, -0.39072373509407043, 0.0037655828054994345, 0.688149094581604, 1.1948912143707275, -0.31662365794181824, 0.5503166913986206, 0.40371349453926086,
   -0.7903149724006653, -0.9501422643661499, 0.08220310509204865, -1.8227547407150269, -0.2444559782743454, 0.6831491589546204, 0.2541562020778656, 0.3352130353450775,
   -0.6643420457839966, 0.9337499141693115, 0.8541362881660461, -0.44140902161598206, -0.063982293009758, -0.7471290230751038, 6.547306537628174, 0.17744779586791992,
   -0.5757445693016052, -0.5630926489830017, 0.8296113610267639, 0.11953620612621307, 0.13957472145557404, 0.9983440637588501, 0.35140958428382874, 0.036581218242645264,
   -0.7174850702285767, 0.7937347292900085, 0.35856786370277405, -0.11634603142738342, 1.1016194820404053, -0.12952974438667297, -0.25350701808929443, -1.102566123008728,
   -0.25687092542648315, -0.3197852373123169, 0.9833931922912598, 0.6023971438407898, 0.4604065716266632, -0.06279746443033218, 0.4263623356819153, -0.6937547922134399,
   -0.22375501692295074, 0.7850445508956909, -0.29422783851623535, 0.440342515707016, 0.9221289753913879, -0.4127688407897949, -1.3600503206253052, 0.5104074478149414,
   -0.1476995199918747, 1.0103622674942017, 0.47164082527160645, -1.0499435663223267, 0.04972304031252861, 0.02823410928249359, 1.3523880243301392, -0.21659088134765625,
   -0.1932435929775238, -0.16388773918151855, 0.07370594888925552, 0.0718994140625, -0.016636423766613007, 0.06608034670352936, 0.06877381354570389, -0.014420959167182446,
   -0.11294747143983841, -0.02967710979282856, -0.12659746408462524, -0.11569282412528992, 0.014079992659389973, -0.017982855439186096, 0.04256245121359825, -0.012414009310305119,
   -0.024651817977428436, 0.08846505731344223, 0.07475758343935013, 0.025363586843013763, -0.057827360928058624, 0.043745044618844986, 0.05457652732729912, -0.11005549132823944,
   0.046635713428258896, -0.008278795517981052, -0.09577666968107224, 0.11191996932029724, 0.032845139503479004, -0.17298075556755066, 0.06577882915735245, -0.07087735831737518,
   0.13075317442417145, -0.13140366971492767, 0.1059483140707016, -0.03115997277200222, -0.09836650639772415, -0.1075696274638176, -0.033007167279720306, -0.0591326467692852,
   0.1058250218629837, -0.09066716581583023, -0.12919177114963531, -0.07424792647361755, -0.030789446085691452, -0.11325623840093613, 0.010977786034345627, 0.026257595047354698,
   -0.12101415544748306, -0.05942661315202713, 0.08444857597351074, -0.010146853514015675, -0.07763560116291046, 0.07525908946990967, 0.0029377336613833904, -0.03147256374359131,
   -0.05759170278906822, 0.019802231341600418, 0.010440346784889698, -0.16957047581672668, -0.15077245235443115, -0.08330869674682617, 0.06357287615537643, 0.016456367447972298,
   0.002283064415678382, 0.16916857659816742, -0.08262575417757034, 0.11493415385484695, 0.12920190393924713, 0.031130656599998474, 0.04565659537911415, -0.1314639002084732,
   0.10208792239427567, 0.02922636829316616, -0.033813681453466415, -0.07050271332263947, 0.00511245196685195, -0.037808842957019806, -0.08417224138975143, 0.09588448703289032,
   -0.07405450195074081, 0.028587980195879936, -0.1476699858903885, -0.1275785118341446, -0.010839651338756084, -0.08497210592031479, 0.10128062963485718, 0.035462331026792526,
   0.057353079319000244, 0.07320363819599152, 0.1680457442998886, 0.14697962999343872, 0.024466602131724358, 0.08953152596950531, 0.10514859855175018, 0.02731987275183201,
   0.02763216756284237, -0.046098463237285614, -0.07703400403261185, 0.18064263463020325, -0.09220430999994278, 0.006085289176553488, -0.034120433032512665, 0.05932046100497246,
   0.12277083098888397, -0.09041210263967514, -0.15401437878608704, 0.1311025619506836, 0.06857267767190933, 0.1512741893529892, 0.018212735652923584, 0.036034055054187775,
   -0.029227694496512413, 0.08192143589258194, -0.061656560748815536, 0.12493080645799637, -0.09937888383865356, -0.08843372762203217, 0.022585082799196243, 0.13875268399715424,
   0.07288181036710739, -0.14526186883449554, 0.0858040302991867, -0.05012403801083565, 0.04461371526122093, -0.09785580635070801, 0.015653327107429504, -0.0594596266746521,
   0.15967464447021484, 0.16442428529262543, -0.04422403872013092, -0.046122580766677856, 0.015651103109121323, -0.03126826882362366, -0.05050081014633179, -0.0998549684882164,
   -0.10397139191627502, 0.03246317058801651, -0.1301017850637436, 0.08781474828720093, 0.13674485683441162, 0.1440761685371399, 0.11818841844797134, 0.027835052460432053,
   -0.04139941558241844, -0.04545595124363899, -0.07332610338926315, -0.01835041493177414, 0.11749915778636932, -0.052237655967473984, -0.045909296721220016, 0.07500124722719193,
   -0.040773991495370865, 0.02728707157075405, -0.03658673167228699, 0.026415200904011726, -0.09055100381374359, -0.11545374244451523, 0.046600669622421265, 0.07459878921508789,
   0.08206591010093689, -0.06411809474229813, -0.07868069410324097, -0.17999263107776642, 0.05367370694875717, -0.06674948334693909, -0.07326450198888779, 0.08972655981779099,
   -0.015898266807198524, 0.03477433696389198, -0.05548902601003647, 0.031117353588342667, 0.0654163584113121, 0.0011983130825683475, -0.07926278561353683, 0.010818924754858017,
   -0.014393328689038754, 0.02498145028948784, 0.12067271769046783, -0.039283495396375656, 0.0010406894143670797, -0.03422147035598755, 0.02851913496851921, -0.15767019987106323,
   -0.07217687368392944, 0.03402738645672798, -0.13180750608444214, 0.013988188467919827, 0.012093795463442802, -0.13050822913646698, -0.012337029911577702, -0.1051989272236824,
   0.08943864703178406, -0.010914627462625504, -0.04690064489841461, 0.007225364912301302, -0.12589965760707855, 0.024413174018263817, 0.1310511827468872, -0.05136119946837425,
   -0.029506323859095573, 0.0490824356675148, -0.025562530383467674, 0.03577834740281105, 0.1114242896437645, 0.033883530646562576, -0.029202450066804886, -0.04668186604976654,
   -0.017832521349191666, -0.002135777147486806, -0.009043524973094463, 0.034687627106904984, 0.13428032398223877, -0.0013274629600346088, -0.0477963462471962, 0.03257911652326584,
   -0.03968452289700508, -0.15229807794094086, -0.09783989936113358, -0.09058727324008942, 0.07043801993131638, -0.06547098606824875, 0.15969859063625336, 0.019150052219629288,
   -0.04813837632536888, 0.004791978746652603, -0.0019470779225230217, 0.07144464552402496, -0.02475116215646267, 0.0886283591389656, -0.014700355939567089, 0.08838976174592972,
   -0.06481757760047913, -0.06233372166752815, -0.10043660551309586, -0.02059718407690525, -0.08624229580163956, 0.12990203499794006, 0.0935104563832283, 0.044479817152023315,
   0.03386549651622772, -0.0036573605611920357, -0.025106947869062424, 0.019818538799881935, -0.03595360741019249, -0.09056312590837479, -0.023009197786450386, 0.07696782797574997,
   0.11042751371860504, 0.051751166582107544, -0.06981372833251953, 0.06438463926315308, -0.02801143191754818, -0.021355994045734406, -0.04141911864280701, 0.10421375185251236,
   0.02581338956952095, -0.06919973343610764, 0.05362650379538536, 0.12560853362083435, 0.1170206367969513, 0.09798946976661682, -0.014627893455326557, -0.16674339771270752,
   0.1177186518907547, 0.06333117187023163, -0.08176109939813614, -0.06271382421255112, -0.021700283512473106, 0.042018525302410126, -0.009534281678497791, -0.022792603820562363,
   0.03464551270008087, 0.07534021139144897, 0.004949765745550394, 0.06434090435504913, 0.10266859829425812, -0.046203069388866425, -0.07041028887033463, -0.022125300019979477,
   -0.10113788396120071, 0.06524831801652908, 0.004482938442379236, -0.0243588387966156, 0.010976371355354786, 0.048889387398958206, -0.04252093657851219, 0.013843839056789875,
   -0.06958793103694916, -0.06786856800317764, 0.061881035566329956, -0.11735928803682327, -0.016930468380451202, -0.03362101688981056, 0.031082576140761375, 0.03646989166736603,
   -0.11546037346124649, -0.04322810098528862, -0.03368031978607178, 0.051685404032468796, -0.007935925386846066, 0.13502028584480286, 0.06273426860570908, -0.09469587355852127,
   0.010785914957523346, -0.10425292700529099, 0.09524831920862198, -0.07689540088176727, -0.09458131343126297, -0.049829624593257904, -0.058073241263628006, -0.06281281262636185,
   -0.072272889316082, -0.02961137518286705, 0.0052787428721785545, -0.0177921112626791, 0.1132807806134224, -0.016379086300730705, 0.09322766959667206, 0.10182658582925797,
   -0.05780217424035072, -0.08196909725666046, -0.003352347994223237, 0.015343929640948772, 0.05343807488679886, 0.005534657742828131, -0.02836301364004612, 0.007025201804935932,
   -0.007201503962278366, 0.12758368253707886, 0.03096640482544899, -0.06658881157636642, 0.051512882113456726, -0.024599919095635414, -0.07814919948577881, 0.10740090906620026,
   -0.0804203674197197, -0.05790935456752777, -0.006229404825717211, 0.09375316649675369, -0.13729804754257202, 0.024721659719944, 0.012358315289020538, 0.13265088200569153,
   0.1042848601937294, 0.08932924270629883, 0.007304283790290356, -0.07818254828453064, -0.07170767337083817, -0.07664754241704941, -0.1497054547071457, -0.14408572018146515,
   -0.08772117644548416, -0.019938452169299126, 0.11372610181570053, 0.026375548914074898, -0.09708436578512192, 0.005073525942862034, -0.06390799582004547, -0.01016464177519083,
   -0.08717048168182373, 0.14438430964946747, 0.041016265749931335, -0.128557488322258, -0.15129807591438293, 0.11900171637535095, -0.1527663916349411, 0.07003593444824219,
   0.039279863238334656, 0.02261260896921158, -0.0830056443810463, 0.08666734397411346, 0.06209668144583702, 0.04347898066043854, 0.033654309809207916, -0.1351778209209442,
   -0.1156165599822998, 0.029347654432058334, 0.012238506227731705, 0.1314365565776825, -0.07027150690555573, 0.028106415644288063, 0.01562635228037834, 0.06487487256526947,
   -0.07571810483932495, 0.0646103024482727, -0.036868125200271606, 0.07010281085968018, -0.11569184064865112, 0.08207251131534576, -0.008825764060020447, 0.008764579892158508,
   0.051547929644584656, 0.003166481852531433, 0.06307938694953918, -0.10002857446670532, -0.030099481344223022, 0.0248393714427948, 0.09874795377254486, -0.12250038981437683,
   -0.0836535394191742, -0.10573194921016693, 0.11992327868938446, -0.041851311922073364, 0.007795438170433044, -0.11059331893920898, 0.025863349437713623, -0.06732743978500366,
   0.08196277916431427, -0.022323578596115112, -0.09637458622455597, -0.000915229320526123, -0.030651599168777466, -0.11446309089660645, 0.1031525582075119, 0.08084990084171295,
   -0.11475665867328644, 0.10292930901050568, -0.09400191903114319, 0.011620432138442993, 0.1028510332107544, -0.099907785654068, 0.09376198053359985, 0.06954056024551392,
   0.07362319529056549, 0.038074493408203125, -0.0766015499830246, 0.09236645698547363, 0.00409206748008728, -0.030196160078048706, 0.09062622487545013, 0.048799753189086914,
   -0.03920659422874451, 0.07792852818965912, -0.08191622793674469, -0.1198326051235199, 0.01902960240840912, -0.019245192408561707, 0.12357580661773682, 0.012608781456947327,
   -0.0899905115365982, -0.10029321908950806, 0.06832922995090485, -0.033052295446395874, 0.11776788532733917, -0.039823517203330994, 0.043840110301971436, -0.08527904748916626,
   0.05005854368209839, 0.08506543934345245, -0.12023355066776276, 0.027471870183944702, 0.08790421485900879, -0.10704579949378967, 0.12097340822219849, 0.04704420268535614,
   0.018867984414100647, -0.03720775246620178, 0.08361010253429413, -0.08417105674743652, 0.12386350333690643, -0.12185725569725037, -0.07752065360546112, -0.07424692809581757,
   0.0794757604598999, -0.1159897893667221, -0.016216114163398743, -0.0628603845834732, 0.019083917140960693, -0.11024831235408783, -0.11852744221687317, -0.04205143451690674,
   0.00455319881439209, -0.043134599924087524, 0.05492947995662689, -0.06135624647140503, 0.09816357493400574, 0.0279681533575058, 0.07153230905532837, -0.08960577845573425,
   0.0016302168369293213, 0.017200186848640442, -0.09931305050849915, -0.037838369607925415, -0.04683305323123932, -0.009021982550621033, 0.04276971518993378, 0.10787443816661835,
   -0.047252342104911804, -0.055484116077423096, -0.0198945552110672, -0.05946040153503418, -0.09100471436977386, 0.12262262403964996, -0.09985470771789551, -0.03918209671974182,
   -0.02796940505504608, 0.04085327684879303, 0.07378089427947998, 0.11047369241714478, 0.033643633127212524, -0.0941840410232544, 0.10670259594917297, 0.116580069065094,
   -0.06583082675933838, -0.05975520610809326, 0.003154546022415161, 0.05867558717727661, 0.05208307504653931, -0.0789196640253067, -0.0005044341087341309, -0.047285258769989014,
   -0.09701670706272125, -0.05303376913070679, 0.09974180161952972, 0.09898866713047028, 0.02992907166481018, -0.06364652514457703, -0.0451899915933609, 0.008757635951042175,
   -0.006243675947189331, 0.05746021866798401, -0.029500573873519897, 0.1096632182598114, -0.0529002845287323, -0.07999135553836823, 0.0971994549036026, 0.0004609227180480957,
   -0.07065199315547943, -0.06770387291908264, -0.0676889568567276, 0.12415339052677155, -0.054976075887680054, -0.10012039542198181, 0.0358247309923172, 0.045277684926986694,
   0.1097504198551178, 0.01969456672668457, -0.03188064694404602, 0.11935736238956451, 0.07132261991500854, 0.10215415060520172, 0.1224292516708374, -0.10674484074115753,
   -0.07523244619369507, -0.018900319933891296, -0.039438679814338684, 0.11220480501651764, -0.0710558146238327, 0.015322491526603699, 0.058790579438209534, 0.02256341278553009,
   -0.12142109870910645, 0.08683156967163086, -0.11782523989677429, 0.07425691187381744, 0.034327149391174316, -0.08770044147968292, 0.022060662508010864, -0.09374825656414032,
   0.09706692397594452, -0.10190533101558685, 0.05745454132556915, -0.11694087088108063, 0.04031287133693695, 0.0688730776309967, -0.12466101348400116, 0.0174034982919693,
   0.03936220705509186, 0.028773441910743713, 0.101707324385643, -0.05081777274608612, 0.06163296103477478, 0.06291608512401581, 0.10819028317928314, -0.0750589519739151,
   0.12892697751522064, -0.7908525466918945, -0.7562522888183594, -0.12563040852546692, 0.7793029546737671, -0.3172931969165802, -0.2547334134578705, -1.7400848865509033,
   -0.4171353280544281, -1.0087774991989136, 0.4603120982646942, 0.6152990460395813, -0.1124134212732315, 0.2900647222995758, 0.0015518799191340804, -0.20897391438484192,
   0.07078555971384048, -0.4965701699256897, -0.3059651255607605, -0.9651256203651428, -0.20336030423641205, 0.14267852902412415, 0.37342143058776855, -1.321845293045044,
   0.27136704325675964, 0.7585429549217224, 0.037433166056871414, -0.6489414572715759, -0.711574375629425, 0.022648610174655914, -0.771813690662384, -1.7049356698989868,
   -1.462544560432434, 0.07137513905763626, -1.6622151136398315, 0.7440997958183289, -0.256406307220459, 0.5256909728050232, -0.9234038591384888, -0.5758253931999207,
   0.5967395305633545, -3.976795196533203, 0.4720211327075958, 1.325608730316162, 0.7304607033729553, -0.8316750526428223, 0.3821750581264496, 0.5588809847831726,
   -0.23971085250377655, -0.6468563079833984, -0.5760807394981384, -0.34144747257232666, -0.18610577285289764, -1.525965929031372, 0.7859488725662231, 0.1720731258392334,
   1.4325404167175293, -1.0339053869247437, 1.5162646770477295, 0.5829001069068909, 0.03688253089785576, -1.5793713331222534, -0.2428227663040161, 0.6270323991775513,
   -0.2288791537284851, -0.5257176756858826, 1.2486039400100708, 1.8316949605941772, -0.7027229070663452, 0.09837456792593002, -1.2363252639770508, -1.731662392616272,
   0.6183494329452515, 0.13291898369789124, -0.1486877053976059, 1.5685285329818726, -0.5105533599853516, -0.4837842285633087, 1.3299591541290283, -1.30706787109375,
   -2.3227603435516357, -0.7939907312393188, -1.608423113822937, -2.1382346153259277, -0.49994707107543945, -0.6947716474533081, -0.43554824590682983, -0.8375425338745117,
   -1.166785717010498, 0.23234929144382477, 1.0909936428070068, -0.6367597579956055, -1.4723255634307861, 0.28746297955513, -1.0713481903076172, -0.815786600112915,
   -2.824185371398926, 0.1298065036535263, -0.012166215106844902, 0.2908262610435486, -1.506298303604126, -1.0464658737182617, -0.04229142144322395, -0.6814368963241577,
   1.3375509977340698, -0.06667997688055038, -0.4725980758666992, 1.4097977876663208, -2.116302967071533, -1.0861306190490723, 0.37522876262664795, 0.14393529295921326,
   -0.8800505995750427, -0.02914540469646454, 0.6235994696617126, 0.7023762464523315, 0.3557819128036499, 0.5785650014877319, -1.1113706827163696, 0.4923830032348633,
   -1.3033665418624878, -0.16418685019016266, 0.6546860933303833, -0.2712351381778717, -2.1807782649993896, -1.2923016548156738, 1.3143786191940308, -0.3162282705307007,
   0.17728497087955475, -0.5714353919029236, 0.5612632632255554, 0.3304055333137512, -0.5776916742324829, 0.07384341210126877, -1.7325103282928467, 0.5102013349533081,
   0.6319781541824341, 0.13181085884571075, 0.9634493589401245, -0.5408377051353455, -0.165547177195549, 0.421474426984787, -0.0808972716331482, -0.23445583879947662,
   -0.4789845943450928, -0.04564017057418823, -0.023448077961802483, -0.5917302370071411, 0.0432739220559597, 0.32038775086402893, 0.497430682182312, 0.3148842751979828,
   -0.43378227949142456, -0.48232194781303406, 0.0677492618560791, 0.7671048045158386, -0.7608553171157837, -0.5149128437042236, -0.6722121238708496, 0.4774610698223114,
   -1.1283674240112305, -0.02851836383342743, -0.3374519944190979, 0.6670737266540527, -0.8794600963592529, 1.4423373937606812, -0.49884796142578125, 1.390396237373352,
   1.157785415649414, 0.45897799730300903, 0.00714889308437705, -0.3993960916996002, -0.9746198654174805, 0.5139304995536804, 0.971869707107544, -0.10116930305957794,
   0.5167996883392334, -0.8076224327087402, -0.44525501132011414, -0.20732754468917847, 0.197290301322937, 0.8865335583686829, 2.259800910949707, 0.110384501516819,
   -0.140849769115448, -0.008512302301824093, -0.7289681434631348, -0.8599895238876343, -0.235955148935318, -1.259505033493042, -0.15076585114002228, 1.4237278699874878,
   0.6241260766983032, -1.4620776176452637, -0.2812419533729553, 1.030772089958191, -0.027271941304206848, -0.15587395429611206, -0.15923015773296356, 3.236016035079956,
   -1.4417341947555542, -0.16567371785640717, 1.1884229183197021, -0.2767418920993805, 0.30572667717933655, 0.13622112572193146, -0.6431281566619873, 1.2467761039733887,
   0.26009315252304077, 1.1656475067138672, 0.2558034658432007, -0.5593559741973877, 0.5953524708747864, -0.6767612099647522, -0.033079952001571655, 0.18774275481700897,
   -0.01621990278363228, -0.9122223258018494, -1.1014213562011719, 1.6634622812271118, 2.584991216659546, 0.8189194798469543, 0.79091876745224, 1.3528697490692139,
   -0.9210127592086792, 0.6832643747329712, 0.8548287153244019, 0.27434682846069336, -0.069674551486969, -0.7606185674667358, 0.09404595196247101, -0.29126793146133423,
   0.1505768895149231, 0.750741720199585, 0.007282427046447992, 0.8712118268013, -0.24904853105545044, 2.207695245742798, -0.23663486540317535, -1.904341697692871,
   0.2080281525850296, 0.2689748704433441, 0.3457357585430145, 1.0153868198394775, -1.4438841342926025, 1.5396652221679688, -0.8613829016685486, 0.1950719654560089,
   -0.5406098961830139, -1.8096519708633423, 0.9555581212043762, 0.48662737011909485, 0.21589352190494537, -0.3490161597728729, -0.46010398864746094, -1.1566907167434692,
   -0.4561093747615814, -0.022070646286010742, 1.008953332901001, 0.25633350014686584, -0.2490699589252472, 0.18183784186840057, 0.9577046036720276, 0.5502960681915283,
   -0.21479874849319458, -0.6021004319190979, 0.41933658719062805, -0.37419718503952026, -1.0283849239349365, 1.7570216655731201, 1.1282291412353516, 0.2821427285671234,
   -0.5519371628761292, 0.23280592262744904, 1.009239912033081, -0.851731538772583, 2.175044536590576, -0.6368697285652161, 0.1813921183347702, 1.180327296257019,
   -0.09227637946605682, 1.4980027675628662, 1.5089119672775269, 1.530321478843689, -0.8658927083015442, -0.7789907455444336, -0.2338941991329193, -0.12495559453964233,
   -0.5820524096488953, 2.617051124572754, 1.0542064905166626, 1.9423445463180542, 1.0222071409225464, 0.5887463092803955, -0.9022759795188904, -0.07731083035469055,
   2.0681850910186768, -1.2769134044647217, -0.062221039086580276, 1.225268840789795, 1.1337205171585083, -0.03176801651716232, -1.7675787210464478, 0.12371810525655746,
   -1.778814673423767, 0.15765097737312317, 0.12236833572387695, -1.680518388748169, -2.8058910369873047, -2.0003421306610107, -2.3180453777313232, -1.2047643661499023,
   0.2780529260635376, -1.0730271339416504, 2.0770721435546875, 0.8976423740386963, 0.8301445245742798, 1.1095658540725708, -0.7809136509895325, 0.6471146941184998,
   0.006652668118476868, -0.3050008714199066, -0.20683960616588593, 0.0034619926009327173, 0.07027492672204971, 0.358659029006958, 0.3109162747859955, -0.2906527519226074,
   -0.3039648234844208, -0.5368386507034302, 0.3523458242416382, 0.8526485562324524, -0.061149608343839645, -0.0011447607539594173, -1.3427793979644775, -0.33157268166542053,
   0.8113268613815308, -0.30242177844047546, -0.14209061861038208, -0.6707039475440979, 0.8458223342895508, -0.1598348319530487, 0.48007237911224365, -0.4765966832637787,
   0.25713348388671875, -0.029187941923737526, 0.14892128109931946, 0.5981972217559814, -0.4795849025249481, -0.5220458507537842, -0.5808337330818176, 0.04861098527908325,
   0.41553202271461487, 0.47881147265434265, 0.27351102232933044, 0.3208560049533844, 0.014070150442421436, -0.09951362013816833, 1.1494126319885254, 0.16984231770038605,
   -0.7638040781021118, 0.08769916743040085, 0.3386440575122833, 1.179267168045044, 0.21286962926387787, 0.047278210520744324, -0.02139541506767273, 0.32289397716522217,
   0.29254475235939026, -0.8095827698707581, -0.07117263227701187, 0.29877257347106934, -0.029434796422719955, -0.541585385799408, -0.06935206800699234, 1.1114883422851562,
   0.4886069893836975, -0.5158070921897888, -0.6934512257575989, 0.6559404730796814, 0.014991275034844875, 0.5673768520355225, 0.6378417611122131, -0.603161096572876,
   -0.10004649311304092, 0.07323518395423889, -0.05633252486586571, -0.02208775281906128, 0.14769510924816132, -0.1258748322725296, 0.09792780131101608, -0.02301960252225399,
   0.07669585198163986, -0.026153167709708214, 0.0761057436466217, -0.011600176803767681, 0.0338161401450634, -0.12741297483444214, 0.021716652438044548, -0.08200768381357193,
   0.08337628096342087, 0.07600174844264984, -0.1176307275891304, -0.09598682075738907, 0.04032158851623535, 0.10237205773591995, -0.08361732214689255, -0.010419282130897045,
   0.04629294574260712, 0.07322441041469574, 0.11565472930669785, 0.0757133811712265, 0.1163071021437645, -0.04985254257917404, 0.004292626399546862, -0.10325255990028381,
   0.03234684094786644, -0.09701366722583771, 0.09663461148738861, -0.09540264308452606, -0.037707507610321045, 0.08674905449151993, -0.0005584218306466937, -0.053366269916296005,
   0.05041158199310303, 0.06216541677713394, -0.02177051641047001, -0.020362840965390205, 0.11271946132183075, -0.09827689826488495, 0.012494915165007114, 0.01333698071539402,
   -0.12109751254320145, -0.00901983492076397, 0.04332151263952255, 0.13836441934108734, 0.03934074193239212, 0.07126865535974503, -0.1240258514881134, 0.012484785169363022,
   0.10761726647615433, 0.026402875781059265, 0.10367214679718018, -0.01531581487506628, -0.0399131216108799, 0.028977854177355766, -0.05393290892243385, 0.0617712140083313,
   -0.07667853683233261, 0.013445237651467323, 0.0972200483083725, 0.05628575012087822, -0.0022966540418565273, 0.010721102356910706, 0.04244755581021309, -0.0555884912610054,
   0.009900525212287903, 0.06999344378709793, 0.04366638511419296, 0.00735492492094636, -0.011118135415017605, 0.1038961112499237, 0.0655214786529541, 0.06799081712961197,
   0.08778148144483566, 0.005287832580506802, 0.015928182750940323, 0.08680501580238342, 0.08060109615325928, 0.02136930264532566, -0.0439022034406662, 0.11071566492319107,
   0.048742588609457016, -0.03694476932287216, 0.10004176199436188, -0.0762508437037468, 0.061747632920742035, -0.07065814733505249, 0.0840110257267952, -0.10916071385145187,
   0.07082793861627579, -0.02825203910470009, 0.038873132318258286, -0.07737598568201065, -0.06847133487462997, 0.02647327072918415, -0.04705910384654999, -0.12921170890331268,
   0.0729765072464943, -0.12044283002614975, -0.07186685502529144, -0.028141668066382408, -0.03415849804878235, 0.00657241977751255, 0.10566086322069168, -0.02033928968012333,
   0.10149019956588745, -0.006516715511679649, 0.11029043793678284, 0.09898131340742111, -0.04505669325590134, 0.11282989382743835, -0.08492449671030045, -0.12085793912410736,
   0.042405515909194946, 0.0738963857293129, -0.07360264658927917, -0.12466732412576675, 0.08183970302343369, -0.021493446081876755, 0.06660861521959305, 0.11838231235742569,
   0.08132265508174896, 0.026166217401623726, -0.03387445583939552, 0.08830879628658295, 0.11060759425163269, 0.06298080086708069, -0.06026431545615196, -0.13343247771263123,
   -0.07788878679275513, -0.03546871617436409, 0.04931667447090149, 0.05709932744503021, 0.040011707693338394, 0.03847665339708328, -0.0852365791797638, -0.08168215304613113,
   -0.101831816136837, 0.02835015021264553, -0.03981861472129822, 0.017424067482352257, 0.052377358078956604, -0.05674375966191292, -0.09628233313560486, -0.07468406856060028,
   0.08407934755086899, 0.14280425012111664, 0.048593904823064804, 0.0929965227842331, 0.11291774362325668, 0.03469467908143997, -0.09861909598112106, 0.013445686548948288,
   -0.12528766691684723, -0.06934062391519547, -0.03472662344574928, -0.12285863608121872, 0.09193375706672668, -0.05741790309548378, 0.06614098697900772, -0.11366807669401169,
   0.03524269163608551, 0.03506357595324516, 0.08482857793569565, 0.11027111858129501, 0.019371431320905685, -0.05343663692474365, 0.05134441703557968, 0.07670773565769196,
   0.04597494751214981, 0.009593297727406025, -0.12292984873056412, 0.1464015692472458, -0.09568984061479568, -0.038610707968473434, -0.01000553835183382, 0.06514894962310791,
   -0.10963212698698044, -0.09453300386667252, 0.08904727548360825, 0.04913328215479851, 0.120608389377594, -0.07329902052879333, -0.024911461398005486, 0.0841977596282959,
   -0.08671945333480835, 0.07948334515094757, -0.08157176524400711, 0.036313511431217194, 0.0003531546099111438, 0.1216244027018547, 0.058986227959394455, 0.11419345438480377,
   -0.007706223987042904, -0.07087485492229462, 0.03800208494067192, -0.03770310804247856, -0.07359541952610016, 0.06838654726743698, -0.10419269651174545, 0.09788410365581512,
   -0.07543481141328812, 0.033882372081279755, -0.03771749883890152, 0.05019068345427513, 0.0936693474650383, -0.07582393288612366, 0.06803830713033676, 0.019764579832553864,
   0.08142343163490295, 0.051930829882621765, 0.03775058314204216, 0.10038073360919952, -0.0877467468380928, -0.09196813404560089, 0.01772892288863659, -0.06742571294307709,
   0.048119887709617615, -0.09411422163248062, -0.11601351201534271, -0.11709862947463989, -0.10026884078979492, 0.11394620686769485, 0.08644594252109528, -0.11194872856140137,
   0.08004718273878098, 0.061841294169425964, -0.08824276924133301, -0.010178976692259312, -0.05401882156729698, -0.07339884340763092, 0.01003137044608593, -0.06849828362464905,
   0.0128086619079113, 0.036350931972265244, -0.04707011580467224, 0.1172945573925972, -0.07399102300405502, 0.018389346078038216, 0.04026905074715614, 0.12216290831565857,
   -0.04639269784092903, -0.07524636387825012, -0.04048049449920654, 0.03758612275123596, 0.03305112197995186, 0.030039886012673378, -0.0971016064286232, -0.07705521583557129,
   0.03237254545092583, -0.020483095198869705, 0.08220714330673218, -0.04424367472529411, -0.08930184692144394, 0.062471020966768265, -0.028930675238370895, -0.02351544238626957,
   0.06259685009717941, 0.09592968970537186, -0.08761368691921234, -0.05565803870558739, -0.055572595447301865, 0.10742761939764023, -0.010788117535412312, -0.11349479109048843,
   -0.04353315755724907, -0.09967013448476791, 0.07142484188079834, -0.030247287824749947, 0.05691840127110481, 0.0002767218684311956, -0.0883544385433197, -0.032578904181718826,
   0.014438256621360779, -0.01629672199487686, -0.09305204451084137, 0.032620951533317566, 0.08368922770023346, 0.05037080496549606, 0.1408604085445404, 0.08285221457481384,
   0.08760889619588852, 0.05963404104113579, 0.02095813676714897, -0.07326626032590866, 0.10179416090250015, 0.029249167069792747, -0.025029020383954048, 0.13255007565021515,
   0.021404534578323364, 0.029013853520154953, 0.04168598726391792, -0.031292807310819626, 0.06601416319608688, -0.008052117191255093, 0.07593808323144913, -0.11516791582107544,
   -0.08175410330295563, -0.13065528869628906, -0.09044716507196426, -0.12774139642715454, -0.030028970912098885, -0.08474695682525635, -0.052264340221881866, 0.017363008111715317,
   0.10250198096036911, 0.014317277818918228, 0.05043628811836243, -0.0506865456700325, -0.020805813372135162, -0.11968005448579788, -0.05177454277873039, -0.08968478441238403,
   0.03970882296562195, 0.01051956694573164, 0.10534762591123581, -0.04913846775889397, -0.038765497505664825, -0.06659005582332611, 0.011218980886042118, 0.030911779031157494,
   0.10822528600692749, -0.06351061165332794, 0.08765965700149536, 0.006527781952172518, 0.08979213237762451, 0.14215151965618134, -0.01979760266840458, -0.0521482490003109,
   0.038970112800598145, 0.053005799651145935, -0.08766663819551468, -0.0047913831658661366, -0.0018814943032339215, 0.1260652095079422, 0.12452706694602966, -0.021054640412330627,
   -0.022356275469064713, 0.11235357820987701, 0.08489899337291718, -0.05410773307085037, 0.01344144344329834, -0.0642361268401146, -0.043083444237709045, -0.04445810243487358,
   -0.08288516849279404, 0.019858665764331818, 0.056588951498270035, 0.030411357060074806, 0.02682284079492092, -0.0432010181248188, -0.08002201467752457, 0.029438145458698273,
   -0.040353965014219284, -0.06776995211839676, -0.03691244125366211, -0.061605241149663925, -0.08440881222486496, 0.11252515017986298, -0.04222746938467026, -0.08626732230186462,
   -0.048740580677986145, 0.10613792389631271, -0.026826471090316772, -0.0847281813621521, -0.08120066672563553, 0.07932090014219284, 0.1027594655752182, 0.016352662816643715,
   0.10368919372558594, 0.14650534093379974, -0.11143893003463745, 0.1168932169675827, -0.03128133341670036, -0.0021867721807211637, -0.06984669715166092, 0.027345575392246246,
   -0.19359031319618225, -0.488398939371109, -1.0825779438018799, -2.0488908290863037, 3.0585694313049316, 0.46588844060897827, 0.266708105802536, 0.24368567764759064,
   0.4810984432697296, -1.2989691495895386, 2.171708106994629, -0.6985195875167847, -0.47632142901420593, 0.6584600210189819, 0.11244987696409225, -1.1942803859710693,
   -0.2099408358335495, -1.088678240776062, -0.7858078479766846, -1.7947041988372803, 1.161957025527954, 1.2267282009124756, 1.0461232662200928, -2.0165207386016846,
   -2.468787431716919, 0.3699158728122711, -0.015854058787226677, -1.3767014741897583, 0.09273860603570938, -2.004566192626953, 0.12196552008390427, -1.1490095853805542,
   1.2311571836471558, 0.10594025254249573, -5.088119029998779, -0.3309888243675232, -0.8733410239219666, -0.24184782803058624, -0.5268906354904175, -0.14954814314842224,
   0.24665744602680206, -1.6558572053909302, 0.3069852292537689, 1.7455247640609741, 0.2878279685974121, 0.8491185903549194, 1.0248194932937622, 0.007033731788396835,
   0.08375898748636246, -0.8861826658248901, -0.4450914263725281, -1.9711523056030273, 0.397032231092453, -0.8361411690711975, -2.5891027450561523, -0.016187814995646477,
   0.6121841669082642, 2.228609323501587, -1.1452323198318481, -1.270882248878479, -0.4812485873699188, -5.395409107208252, 0.45900070667266846, -0.0012435343815013766,
   -1.4132592678070068, 0.17135652899742126, -1.4444870948791504, -0.7940236330032349, 0.02979445271193981, -1.7229421138763428, -0.9939625263214111, -1.8299223184585571,
   0.07197931408882141, -0.8807052969932556, -2.2354302406311035, -0.7999482154846191, 0.6469754576683044, -0.4468173384666443, 1.444920539855957, 0.5673919320106506,
   1.434588074684143, -0.08960146456956863, -1.063927173614502, 0.08692552149295807, 0.3470814526081085, -0.6210325360298157, -0.22547279298305511, -2.4730873107910156,
   -1.5839183330535889, 0.02100251242518425, 2.1565117835998535, -0.9578679800033569, -1.3797096014022827, -1.0936353206634521, 0.9039000272750854, -0.3214810788631439,
   -1.9324750900268555, -0.5356543660163879, -0.9105008840560913, -1.213915228843689, -0.5588683485984802, -0.7114299535751343, 1.6064932346343994, 0.004869992844760418,
   -0.5797179937362671, -0.5370333194732666, -0.5151191353797913, -0.7737982273101807, -1.060274600982666, -0.12683242559432983, -0.6434247493743896, -0.3511251211166382,
   0.25581955909729004, -0.9167608618736267, -1.2375417947769165, -2.2569007873535156, -0.5239507555961609, -0.027297157794237137, -2.0522735118865967, -1.4041786193847656,
   1.387285828590393, -0.1791454255580902, -3.9394562244415283, -1.2785288095474243, 2.589529514312744, -1.0831259489059448, -0.42050984501838684, 0.13478156924247742,
   0.01160560641437769, 0.5791584849357605, 0.681283175945282, -0.618656575679779, -0.43354615569114685, 0.45526859164237976, 0.3671444356441498, 0.5374873876571655,
   0.5763429403305054, 0.5513670444488525, 0.17275474965572357, 0.18974697589874268, 0.2460746169090271, -0.3533180356025696, 0.8806873559951782, 0.6466270685195923,
   -0.12580707669258118, 0.03062031976878643, 0.017967164516448975, -0.23575381934642792, 0.3106553256511688, -0.927547037601471, 0.06548018753528595, -0.13643476366996765,
   -0.659907341003418, -0.7416184544563293, 0.5716521739959717, -0.11219654232263565, 0.5283877849578857, -0.6712267994880676, -0.5073518753051758, -0.1948687583208084,
   -0.16439539194107056, -0.9306562542915344, 0.18260395526885986, 0.04916767403483391, -0.04805271700024605, -0.6146194934844971, -0.7731218338012695, 0.8476839065551758,
   -0.41812190413475037, 0.4333246946334839, -0.1477806568145752, 0.911981999874115, -1.3173019886016846, 0.12870460748672485, -0.24275720119476318, 0.09929091483354568,
   -0.9672053456306458, 1.9792015552520752, 0.5297811031341553, 1.3981503248214722, -0.6319935917854309, 0.5526725649833679, -0.029889190569519997, -0.8984379768371582,
   -0.256282240152359, 0.14536474645137787, -0.6868367791175842, -0.42885181307792664, 0.445828914642334, -1.2013368606567383, 0.18177862465381622, -0.5416262149810791,
   0.5168114304542542, 0.9963296055793762, 0.0027348801959306, -0.2680724859237671, 0.9628188014030457, 0.35013702511787415, 0.13586260378360748, -2.845285654067993,
   1.246875286102295, -0.09229177981615067, -0.3999215364456177, 0.5520955324172974, 0.3507513403892517, -1.5484141111373901, 0.43426766991615295, -0.10736379772424698,
   0.275886595249176, 0.7095230221748352, -0.3848978579044342, 1.1248935461044312, 1.3124983310699463, 0.15496014058589935, -0.17859716713428497, -1.3514399528503418,
   -0.7525684237480164, 1.550939917564392, -0.27514001727104187, -0.21342231333255768, 1.057130217552185, -0.13959744572639465, -0.46332836151123047, -1.1180108785629272,
   -0.5128815770149231, 1.4683375358581543, -2.076829433441162, 0.5308369994163513, -0.4616087079048157, -0.24313323199748993, -0.6934250593185425, -0.03210648149251938,
   0.07205929607152939, -3.123411178588867, 1.7521802186965942, 0.7610605359077454, -0.32985159754753113, 0.35138940811157227, 0.37319621443748474, -0.4276880621910095,
   -1.5661096572875977, -0.8850400447845459, 0.07823856174945831, 0.49894118309020996, 0.16959862411022186, -1.0692543983459473, 0.6481392979621887, 0.0994233563542366,
   1.6820597648620605, -1.0901700258255005, 1.396514654159546, -1.0031704902648926, -0.7082095146179199, -1.168195128440857, 0.16199932992458344, 0.5758845210075378,
   0.18043933808803558, -1.3351677656173706, 1.1215124130249023, 1.2776793241500854, -1.701325535774231, 0.23365795612335205, -2.044783353805542, -1.376733660697937,
   -0.8228955268859863, 0.1815280169248581, 0.27979519963264465, 1.0983978509902954, -0.8332163691520691, -0.5517237782478333, 0.8860729336738586, -0.48578310012817383,
   0.44655922055244446, -0.9829732179641724, -1.2978432178497314, -1.9034881591796875, 0.4788690209388733, 0.35091516375541687, 0.10847331583499908, -0.6001244783401489,
   0.25277167558670044, -0.2257739007472992, 0.5924054384231567, -0.4617689251899719, -0.663175106048584, 0.7753310799598694, -0.2642662227153778, -0.08200916647911072,
   -6.020292282104492, 0.6935206055641174, -0.8101428151130676, -0.25300854444503784, -0.044522300362586975, -1.3512763977050781, 0.9132072925567627, -0.48045018315315247,
   0.3214794993400574, -1.5256010293960571, 0.7094534039497375, 1.3504496812820435, 0.6521145105361938, -1.5561331510543823, -0.2413666695356369, 0.35013532638549805,
   -0.7966739535331726, 0.3664959967136383, -0.7346473932266235, -0.7274395823478699, 0.24495843052864075, 2.1081252098083496, -0.8408962488174438, 0.45760688185691833,
   -0.6472216248512268, -1.0560059547424316, 1.2993884086608887, 0.17685343325138092, -0.377551794052124, -0.30051949620246887, 0.6416823863983154, -1.4869307279586792,
   0.02932647429406643, -0.5894029140472412, 0.45013919472694397, 0.3538634777069092, -0.38111236691474915, -0.06511952728033066, -1.4368128776550293, 0.544117271900177,
   0.9244416952133179, -0.4883260130882263, -0.39441558718681335, 0.046379148960113525, -0.1483117789030075, 0.6555076837539673, 0.49223122000694275, -0.3198423385620117,
   -0.40101924538612366, -0.2748539447784424, 0.06310424953699112, -0.3916158080101013, -0.5074768662452698, 0.23386117815971375, -0.4301035404205322, 0.5140917897224426,
   -0.18203672766685486, 0.0073619321919977665, -0.5342336893081665, -0.013508294709026814, 0.12464011460542679, 0.004507209174335003, -0.5664848685264587, -0.05011521279811859,
   -0.36213576793670654, 0.31701022386550903, -0.7184900641441345, 1.0350348949432373, 0.016588779166340828, 0.5045956969261169, -0.10874452441930771, 0.40247842669487,
   -0.3778081238269806, -0.21690255403518677, 0.3623508810997009, -0.2070251852273941, 0.25199219584465027, 1.2644851207733154, -0.3093739449977875, 0.4905073940753937,
   0.2395220398902893, 0.04451301321387291, -0.381868839263916, 0.24825090169906616, 0.11357098072767258, 0.004217508248984814, 1.7708070278167725, -0.8462919592857361,
   -0.2615669369697571, 0.04820922389626503, 0.24373196065425873, -0.2286546677350998, -0.7191168665885925, -0.31201910972595215, -0.3312879204750061, 0.360440194606781,
   -1.4146958589553833, -1.3682268857955933, 1.2894591093063354, 0.29397308826446533, -0.8214302659034729, 0.26344186067581177, -1.9013843536376953, 1.5460506677627563,
   -0.7471171021461487, 0.9524775147438049, 0.7176443338394165, 1.0065381526947021, -0.601020336151123, -0.0414411723613739, -1.4384509325027466, 0.3447124660015106,
   1.309816598892212, -0.14763493835926056, -0.3497964143753052, -1.6410382986068726, 0.5486087203025818, -2.661159038543701, 1.1047132015228271, -0.3840627372264862,
   -0.5480132699012756, -0.031568873673677444, -0.5631407499313354, 0.2893258333206177, 1.19992196559906, 1.092994213104248, 0.4215587079524994, 1.0048420429229736,
   2.80444073677063, 0.920006275177002, 1.6403963565826416, -0.5240862965583801, -1.2191694974899292, -0.9503775835037231, -1.0670777559280396, -0.7408998608589172,
   0.1326732188463211, -1.2550479173660278, -0.4150487184524536, 0.48871859908103943, -1.259203314781189, -0.7843100428581238, 3.244354486465454, -0.5758532285690308,
   0.953546404838562, 0.6582561135292053, -0.15149801969528198, 0.6521387100219727, -0.9258350133895874, 0.9634181261062622, -1.4794601202011108, 0.23174577951431274,
   -0.5722932815551758, -1.2772626876831055, 0.4751775562763214, 0.052240412682294846, -0.5636645555496216, 0.33787834644317627, -0.6709170937538147, -2.122337818145752,
   -0.48889821767807007, -1.639888882637024, -1.0724267959594727, 0.00042668875539675355, -0.10917551070451736, 3.343637704849243, -0.9321572184562683, -0.17634247243404388,
   -0.19828945398330688, -0.4039846956729889, -0.23713372647762299, 0.7234294414520264, 0.2294393628835678, 0.3736008405685425, -0.03756793588399887, 0.8671648502349854,
   1.259461760520935, 0.7615954279899597, -1.349877119064331, -0.7145050764083862, -1.727980136871338, -1.5010631084442139, 1.7252085208892822, 2.4175901412963867,
   0.3359510004520416, -1.064041018486023, 0.566217839717865, 0.8675075173377991, 0.5462945103645325, -2.3324813842773438, -1.12680184841156, -2.773934841156006,
   -0.3929624855518341, 0.7377006411552429, 0.649972677230835, -0.5282495617866516, 1.330535650253296, -1.2934130430221558, -0.2561468183994293, 0.015945542603731155,
   1.2629802227020264, -1.8275161981582642, 0.24465389549732208, 0.16517303884029388, 3.2028493881225586, -1.127394676208496, 0.023816516622900963, -0.5608229041099548,
   -3.5593481063842773, 2.438546657562256, -1.2118645906448364, 1.8111521005630493, -2.594585418701172, 2.2160537242889404, -0.7038266062736511, 2.4791219234466553,
   -1.834384560585022, -1.486973524093628, 5.6526079177856445, 1.0217641592025757, 1.761716604232788, 0.2975917458534241, -0.8664620518684387, 0.4578213393688202,
   0.24974776804447174, 0.181114062666893, 0.10247986018657684, -0.23617258667945862, -0.7293483018875122, 0.27399536967277527, 0.20378799736499786, 0.347666472196579,
   0.09334547072649002, 0.06501935422420502, -0.41300228238105774, 1.050758719444275, -0.1481630951166153, -0.4148283004760742, 0.02148672193288803, 0.046511583030223846,
   0.05570251867175102, 0.34944671392440796, 0.5726473331451416, -0.4490388035774231, 0.21753443777561188, 0.009822285734117031, 0.17813871800899506, -0.3905704617500305,
   -0.6634836792945862, -0.2264956533908844, 0.5289241075515747, -0.32053494453430176, -0.10900577902793884, -0.6803670525550842, -0.8871014714241028, -0.0633772760629654,
   -0.25263354182243347, 1.0847010612487793, -0.2292790412902832, 0.42448440194129944, -0.5663139820098877, -0.03407749906182289, 0.22447846829891205, 0.002659203950315714,
   -0.64497309923172, -0.18975794315338135, 0.8425487875938416, -0.11947442591190338, -0.11906852573156357, -0.3674387037754059, 0.6195281744003296, 1.2545322179794312,
   0.27162906527519226, -1.0468183755874634, 0.4119555950164795, -1.6262613534927368, -0.04161549359560013, -1.3311965465545654, 0.01681387424468994, 0.11196553707122803,
   0.7463399767875671, 0.06830467283725739, 0.771806538105011, 0.09371637552976608, 0.2046954184770584, 0.5382919907569885, -0.08787871152162552, -0.5659367442131042,
   -0.03361121192574501, 1.4422752857208252, 0.33923792839050293, -0.5852459669113159, -0.4260304868221283, -1.3922592401504517, -0.6185671091079712, 0.4972345232963562,
   -2.3534469604492188, -0.15466813743114471, -0.48615434765815735, 0.829708993434906, -0.6723142266273499, 0.8964503407478333, 0.16738630831241608, -1.449784755706787,
   -0.4174783527851105, -0.10430925339460373, 0.48031994700431824, 1.1012667417526245, 0.4197022020816803, -0.9756478071212769, 0.9924212694168091, 0.5841653943061829,
   -0.16901539266109467, 0.4371832609176636, 0.7872478365898132, 0.01686963625252247, 0.2116888016462326, 0.6109238266944885, -1.0235490798950195, -0.8732579946517944,
   -1.407379150390625, 0.21064503490924835, 0.5260116457939148, 1.6418490409851074, -0.6516209244728088, 1.1357965469360352, 0.38829582929611206, 1.2535401582717896,
   1.4722024202346802, 0.0495162233710289, -0.11544591188430786, 0.5132004618644714, -0.832615077495575, -1.621902346611023, -0.7695276737213135, 0.47091731429100037,
   -0.8006866574287415, -0.8182395100593567, 0.39077553153038025, -0.6423777937889099, -1.7354835271835327, -1.4290580749511719, 0.3603774309158325, 0.6557174324989319,
   -1.3427993059158325, 1.3232125043869019, -1.0091862678527832, 0.3000001609325409, 0.8191888928413391, 1.3862262964248657, -0.13654114305973053, 1.3023192882537842,
   -0.500788152217865, -0.5226580500602722, 0.44886285066604614, -0.39162516593933105, 2.833914279937744, 0.39289021492004395, 1.0998570919036865, -0.23874841630458832,
   -0.5866033434867859, -0.16461561620235443, 0.38598015904426575, 1.284764289855957, 0.14986293017864227, 0.1371375471353531, -0.4396764039993286, -1.1955273151397705,
   -0.14827309548854828, 0.03795231878757477, 0.14565575122833252, -0.3686612546443939, -2.991957902908325, -0.7368525862693787, -0.5224026441574097, -2.7678654193878174,
   -1.2209041118621826, 0.6933620572090149, 0.38933366537094116, 0.8095537424087524, 0.32530349493026733, -0.8428435325622559, 0.11811802536249161, -0.31752103567123413,
   -0.10257763415575027, -0.727744996547699, -0.09890426695346832, 0.4828443229198456, 0.53495854139328, -1.5610333681106567, 0.4978029131889343, -0.4469814896583557,
   0.260873019695282, 0.24432429671287537, -1.0215867757797241, 0.18293967843055725, -0.24838115274906158, -1.0477046966552734, 0.30088910460472107, -0.545348584651947,
   1.6903694868087769, -2.2461371421813965, 1.6417731046676636, -0.8901346921920776, 1.7360310554504395, -0.6576164960861206, -0.5620852708816528, 0.12765859067440033,
   0.4700639247894287, -0.0036321247462183237, -0.2580663859844208, -0.2790911793708801, -2.903031826019287, -0.39414000511169434, -0.2685096859931946, 0.7198622822761536,
   -0.008268670178949833, -0.003620984498411417, -0.1062651127576828, -0.3237304389476776, 1.2454718351364136, -0.27095383405685425, -0.040165070444345474, -0.6345007419586182,
   -0.14937259256839752, -0.34764328598976135, 0.6161630749702454, 0.0005472915363498032, -0.3162926137447357, 0.5739331245422363, -0.8987329602241516, 0.46124282479286194,
   -0.36723607778549194, -0.48017337918281555, -0.40438970923423767, -0.07150941342115402, 0.2826143205165863, 0.8681917190551758, -0.028963005170226097, -0.1990017294883728,
   -0.01860375516116619, -0.157973051071167, -0.7648006081581116, 0.517828106880188, -0.8455619215965271, 0.2848280072212219, 0.193266823887825, 0.6788917183876038,
   -0.4995468258857727, -0.24329236149787903, -1.2696118354797363, 0.02525252476334572, -0.28534433245658875, -0.17330116033554077, 0.3033706545829773, 0.029241353273391724,
   -0.00988449715077877, 0.39953795075416565, -0.7764976024627686, -0.6604723930358887, -0.5285830497741699, 0.14204777777194977, -0.39967861771583557, -0.30301767587661743,
   0.003999706357717514, -0.5878282785415649, -0.3336161673069, -0.2656792402267456, 0.07974399626255035, 0.6139936447143555, -0.24957406520843506, 0.9576074481010437,
   0.4361460208892822, -0.5195107460021973, 0.07075778394937515, -0.31611722707748413, -0.49204403162002563, 0.11261963844299316, 0.12316160649061203, 0.4347807466983795,
   -0.12433294951915741, 0.10848627984523773, 0.11514193564653397, -0.01839996874332428, -0.0030465861782431602, 0.11438657343387604, 0.05071276053786278, 0.03671840950846672,
   0.0376301184296608, 0.09051404148340225, 0.1169721856713295, 0.09606526792049408, 0.05130719393491745, 0.05482998862862587, -0.025400370359420776, 0.058393847197294235,
   -0.026723714545369148, 0.06926515698432922, 0.06907056272029877, 0.04263880476355553, 0.08125890046358109, -0.02437182329595089, -0.07611679285764694, 0.06582256406545639,
   -0.038135088980197906, 0.10520812124013901, 0.03642360121011734, 0.07652915269136429, -0.03601737692952156, 0.09358721971511841, -0.053301937878131866, 0.07564049959182739,
   -0.0495491698384285, 0.018847092986106873, -0.010648769326508045, 0.09322992712259293, -0.04388716071844101, 0.08677726238965988, 0.0505748949944973, -0.04477217420935631,
   -0.10756099224090576, -0.01593044027686119, 0.04153997078537941, -0.059938695281744, -0.009672760032117367, -0.08912835270166397, -0.06027322635054588, 0.01096697710454464,
   0.08847028017044067, -0.10611234605312347, 0.005082296207547188, -0.0804801657795906, 0.07932145148515701, -0.005113370716571808, -0.10669156163930893, 0.11314648389816284,
   0.06844449043273926, -0.09933032095432281, 0.03377850726246834, -0.013880434446036816, 0.027669567614793777, -0.09136316925287247, -0.04302629083395004, -0.02954067848622799,
   0.0642608255147934, 0.08416716754436493, -0.06939928233623505, 0.06647755205631256, 0.052334949374198914, 0.04630952700972557, -0.0975596010684967, 0.0032765273936092854,
   -0.006720035336911678, 0.01622903347015381, -0.12013264000415802, 0.026383042335510254, -0.0477621853351593, -0.09570866078138351, 0.05196268856525421, -0.10612787306308746,
   0.06397219747304916, -0.07652564346790314, 0.0860486626625061, 0.09316477924585342, 0.049774087965488434, -0.032383743673563004, 0.043050963431596756, -0.10218333452939987,
   0.07397224009037018, 0.11359571665525436, 0.0849423035979271, 0.11928313225507736, -0.036099232733249664, 0.10202978551387787, 0.12141145765781403, -0.10021175444126129,
   -0.05600816756486893, -0.10094083100557327, -0.10744845867156982, 0.07961790263652802, 0.0414595790207386, -0.01797773689031601, -0.08787144720554352, -0.0034811890218406916,
   -0.08661645650863647, 0.03122749552130699, 0.0744333416223526, 0.08941124379634857, -0.010619059205055237, -0.08955524116754532, 0.010445309802889824, 0.09806238859891891,
   -0.09390509873628616, 0.009950569830834866, 0.043842922896146774, -0.006817759945988655, -0.11880522221326828, 0.06960084289312363, 0.018744494765996933, -0.05366065725684166,
   -0.0447382926940918, -0.05343707278370857, 0.028709204867482185, -0.05352387577295303, -0.07028071582317352, 0.009741001762449741, -0.008781862445175648, 0.039862290024757385,
   -0.10683982074260712, -0.09195870906114578, 0.07717975974082947, 0.12323011457920074, -0.09721894562244415, -0.019989367574453354, 0.07076249271631241, 0.007823999039828777,
   -0.12399192154407501, -0.09571725130081177, 0.009994148276746273, 0.03359947353601456, -0.028215572237968445, 0.10088039934635162, -0.11775211989879608, 0.09707185626029968,
   0.1072767898440361, -0.08835253119468689, -0.039806049317121506, 0.10305150598287582, 0.0478622168302536, 0.01907815784215927, -0.06829895079135895, -0.0582340843975544,
   -0.0404936820268631, 0.008499682880938053, -0.10686217993497849, -0.051821306347846985, 0.002000195672735572, -0.0984489768743515, 0.0005419831722974777, 0.10461946576833725,
   -0.07358657568693161, 0.07364521920681, -0.12125875800848007, -0.06013447418808937, -0.031620658934116364, -0.08815085142850876, -0.1236431747674942, 0.0259359460324049,
   0.06377071887254715, -0.11392504721879959, -0.00454507302492857, -0.015862522646784782, -0.08115451782941818, 0.09859605133533478, 0.08003208786249161, 0.03420712798833847,
   0.020658470690250397, 0.11206911504268646, 0.08884289115667343, -0.12318462878465652, 0.01915787160396576, -0.04063350707292557, -0.06748904287815094, -0.043640557676553726,
   -0.038193415850400925, 0.100479356944561, -0.024255113676190376, -0.004951114766299725, 0.027151376008987427, 0.0214163139462471, -0.12619464099407196, -0.11528955399990082,
   -0.6394721269607544, -0.07046740502119064, -0.6124590039253235, -0.2098243087530136, -0.43043968081474304, -0.5009133219718933, 0.17050734162330627, -0.41809338331222534,
   0.08629033714532852, 0.1463433802127838, 0.49192288517951965, 0.4636397361755371, -0.32748156785964966, -0.20680265128612518, -0.2137092798948288, 0.18669162690639496,
   -0.49106618762016296, -0.30142661929130554, -0.3245764672756195, -0.6092687845230103, -0.17312878370285034, 0.3075675070285797, 0.8151445984840393, -0.7448301911354065,
   -0.22487518191337585, -0.2851945459842682, -0.35760465264320374, 0.7108982801437378, 0.7147296071052551, 0.5221124887466431, -0.5419952273368835, -0.1489167958498001,
   -0.4859255850315094, -0.20314395427703857, 0.2028181552886963, -0.13615120947360992, -0.32553213834762573, -0.19474701583385468, -0.07008305191993713, -0.24446937441825867,
   0.9766148924827576, -1.0836119651794434, -0.18307384848594666, 0.3628591001033783, 1.3547238111495972, -0.3262082636356354, -0.21858946979045868, 0.5169599056243896,
   0.05613715574145317, -0.22851702570915222, -0.10962997376918793, 0.17988725006580353, -0.20469865202903748, -0.11737850308418274, -0.1628587394952774, 0.12347519397735596,
   0.678002655506134, 0.5495167970657349, 0.7734063863754272, 0.03334314748644829, 0.2825091481208801, -1.1720638275146484, 0.35854119062423706, 0.011652142740786076,
   -0.9216623902320862, 0.7668938636779785, 0.06473328173160553, -0.43307557702064514, 1.3086096048355103, 0.7570340633392334, 0.2817878723144531, -0.26867106556892395,
   -0.5280759930610657, -0.10656328499317169, -0.9503527879714966, -0.07101710885763168, 0.22207766771316528, -0.5547188520431519, 0.5325133800506592, -0.3361983001232147,
   -2.1184396743774414, -0.015923066064715385, -0.425117552280426, -0.35518208146095276, 0.18918724358081818, -1.1127901077270508, -0.9984100461006165, -0.20897476375102997,
   -1.8062233924865723, -0.07121820002794266, 1.0429296493530273, -0.04114805907011032, -1.3561052083969116, -0.40361014008522034, -0.3646118640899658, -0.3678688704967499,
   -1.0204213857650757, -0.41011589765548706, -0.5490002632141113, 0.7918052077293396, -0.8968286514282227, -0.004710449371486902, -0.6698593497276306, -1.0271061658859253,
   0.12050627917051315, 0.009425071068108082, -0.4504208564758301, 0.46220555901527405, -1.311221957206726, 0.7312747240066528, 0.0996977686882019, -0.7791358232498169,
   -0.07297691702842712, -0.5719915628433228, -0.2892644703388214, 1.9646204710006714, -0.5747542977333069, -0.9033522009849548, -0.9300588369369507, 0.45723477005958557,
   -0.9495016932487488, -0.12889792025089264, 1.5069448947906494, -0.5421127676963806, 0.017564624547958374, -1.1819299459457397, -0.12862008810043335, -1.1569942235946655,
   -0.47744932770729065, 0.05656859651207924, 0.1657969206571579, -0.44197574257850647, 0.7266292572021484, -0.14866609871387482, -0.0263515654951334, 0.20091314613819122,
   -0.06490951031446457, 0.7731189727783203, 1.3759845495224, 0.12995153665542603, 0.6572589874267578, 0.6548947691917419, -0.12161960452795029, 0.15448854863643646,
   0.5591918230056763, -0.433578759431839, -1.0650765895843506, -0.36473482847213745, 0.10219678282737732, 0.03683909401297569, 0.9469939470291138, -0.5663124918937683,
   -0.9810735583305359, -0.9922720193862915, -0.03816157579421997, 1.6883299350738525, -1.14252769947052, -0.671780526638031, 0.12618911266326904, 0.6565148234367371,
   -0.7332475185394287, -0.27309921383857727, -0.4972303509712219, -0.5619683265686035, -0.5149203538894653, -0.5329864621162415, 0.12603706121444702, 1.2052700519561768,
   0.8020419478416443, 0.7540404796600342, 0.43747830390930176, 0.07515659928321838, -1.6709794998168945, -0.09048823267221451, 0.6292784810066223, -0.5095004439353943,
   0.40508773922920227, -0.22166986763477325, -0.18664205074310303, -0.831898033618927, -0.246539905667305, 0.518053412437439, 0.3832533657550812, 0.9301638007164001,
   0.020020747557282448, 0.08822810649871826, 0.5178664326667786, -0.30447953939437866, 0.1875850260257721, -0.681979775428772, 0.5449913740158081, 0.2528846263885498,
   -0.07692162692546844, 0.0023512730840593576, -0.003473089775070548, 0.007755989674478769, 0.11645504832267761, -0.09368663281202316, 0.12349306792020798, 0.05862961709499359,
   0.04197300598025322, -0.11338979750871658, 0.07629825919866562, -0.03966125100851059, -0.04297589510679245, -0.02669343538582325, -0.055769290775060654, 0.041199758648872375,
   -0.12174305319786072, 0.037562623620033264, 0.06876491755247116, 0.0027276063337922096, 0.047000542283058167, 0.0727461725473404, 0.027044201269745827, 0.08196184039115906,
   0.019459715113043785, 0.03468502685427666, -0.09898346662521362, -0.079217329621315, 0.09556834399700165, -0.0004904731176793575, 0.024333810433745384, -0.09119720757007599,
   0.1068684309720993, 0.04427413269877434, 0.0869675874710083, -0.10564903914928436, 0.030481155961751938, -0.033735670149326324, 0.08429936319589615, -0.0334220752120018,
   0.012388275936245918, -0.044935937970876694, 0.09547793120145798, -0.11687528342008591, -0.12349310517311096, -0.035869382321834564, 0.0035689640790224075, 0.08463003486394882,
   0.1065397709608078, -0.0032259298022836447, -0.05006375163793564, 0.09707114845514297, -0.068927101790905, 0.022594736889004707, -0.12400548160076141, 0.1000642254948616,
   -0.051124438643455505, -0.023365728557109833, -0.022348623722791672, 0.020577039569616318, 0.11264454573392868, -0.12147355079650879, 0.039316121488809586, 0.08073697984218597,
   -0.0064253779128193855, 0.10762181133031845, -0.0862097293138504, -0.016948606818914413, -0.12161038815975189, 0.07127244770526886, 0.027454711496829987, -0.07348381727933884,
   0.04924379661679268, -0.08325705677270889, 0.11121463775634766, 0.04920954257249832, 0.06850554794073105, -0.10843933373689651, 0.09589662402868271, 0.09218663722276688,
   0.0011977143585681915, 0.10520560294389725, -0.013441182672977448, -0.050404664129018784, 0.041676703840494156, 0.01719971001148224, 0.026531560346484184, 0.07662268728017807,
   0.05285971984267235, -0.09202592074871063, 0.03098549321293831, 0.07885465025901794, 0.04754705727100372, -0.10117064416408539, -0.04086540266871452, -0.11210119724273682,
   -0.03148602694272995, 0.07347464561462402, -0.053876448422670364, -0.03273070976138115, 0.04879206791520119, -0.007643985562026501, -0.053459253162145615, -0.002601359039545059,
   -0.04210064932703972, 0.10070741921663284, -0.11627915501594543, -0.09984883666038513, 0.07739735394716263, 0.11364423483610153, 0.1041833758354187, 0.02046436443924904,
   0.07684481889009476, -0.10600990056991577, -0.05830565467476845, 0.014608711004257202, 0.12032563239336014, -0.11758942157030106, 0.08717229962348938, -0.03324851766228676,
   0.09786256402730942, 0.01655617542564869, -0.04728318750858307, 0.0380813404917717, 0.07324763387441635, -0.08331076055765152, -0.050622761249542236, 0.030509255826473236,
   0.02779913693666458, 0.08252172917127609, 0.11420073360204697, 0.04673260822892189, 0.025809822604060173, 0.11113439500331879, -0.08147665858268738, 0.05063846334815025,
   -0.09718800336122513, 0.02046786993741989, -0.02985461615025997, -0.04798230528831482, 0.028255309909582138, -0.0065544527024030685, 0.023850174620747566, -0.021745555102825165,
   -0.018312206491827965, 0.024903330951929092, -0.06401892751455307, -0.04278794676065445, 0.09823494404554367, -0.07545750588178635, 0.03371251001954079, 0.05800478532910347,
   -0.11494620889425278, -0.06708569079637527, -0.1040269285440445, 0.034588608890771866, -0.10248738527297974, -0.11049111932516098, 0.014037120155990124, -0.06929901242256165,
   0.0802341178059578, 0.05525491386651993, 0.02196679636836052, -0.08394451439380646, 0.0005809170543216169, -0.07312741130590439, -0.0988360345363617, -0.03430332988500595,
   -0.09523558616638184, 0.12090025842189789, -0.0006832493236288428, 0.027143612504005432, 0.013736171647906303, 0.0594327412545681, 0.07287536561489105, -0.08249152451753616,
   -0.00932933110743761, -0.04186725616455078, 0.11477768421173096, 0.07983718067407608, -0.03275994956493378, 0.00674707954749465, -0.007631843443959951, 0.07434868812561035,
   -0.08916940540075302, 0.05807032436132431, -0.10471727699041367, 0.09794147312641144, -0.06153741106390953, 0.028695669025182724, 0.022627681493759155, -0.06552430987358093,
   -0.5171933174133301, 0.47661206126213074, -0.395559161901474, -0.4781414568424225, 0.29042118787765503, 0.5167275667190552, 0.6058282852172852, 0.5649913549423218,
   0.5299464464187622, -0.38800176978111267, -0.02456076256930828, -0.24996916949748993, -0.5165160298347473, 0.1327541321516037, -0.07050646096467972, 1.2785080671310425,
   -0.18960601091384888, 0.7720277309417725, -0.021927058696746826, 0.3219566345214844, 1.025749683380127, 0.5923346281051636, -0.30099985003471375, 0.8516127467155457,
   0.10160128772258759, -0.18575772643089294, 0.6915966868400574, -0.6203836798667908, 0.022501295432448387, -0.1981074959039688, -0.12930457293987274, 0.15969838201999664,
   -1.2180746793746948, 0.00679431390017271, -1.3270289897918701, -0.01576458476483822, -0.805728554725647, -0.22998765110969543, -0.6802374720573425, 0.8187023401260376,
   0.840589165687561, -0.3516666293144226, -0.9304239153862, 0.41117459535598755, -0.22417420148849487, 1.3611913919448853, -0.04980897903442383, 0.09293748438358307,
   0.3887007534503937, 0.07158222049474716, 0.9769988059997559, -0.905776858329773, 0.48600876331329346, -0.6511298418045044, -0.020528698340058327, 0.42259976267814636,
   0.4545576274394989, 1.9782201051712036, -0.20726944506168365, 0.9218459725379944, -0.8686069846153259, -0.15805846452713013, -1.579811453819275, 1.052436351776123,
   -0.34115466475486755, 0.44659703969955444, 0.8201957941055298, 0.8950860500335693, -1.7944972515106201, 0.5472702383995056, -0.36052176356315613, 0.22813089191913605,
   -0.6449492573738098, 0.14499779045581818, -0.805850088596344, 2.0138325691223145, 0.36769363284111023, -0.7381084561347961, 2.6095540523529053, 0.04731561988592148,
   -0.06041337177157402, -0.6584492325782776, 0.44960883259773254, -0.45636945962905884, -0.519563615322113, -0.5962510704994202, 0.21357209980487823, 1.2649717330932617,
   -0.16331611573696136, -0.3683578670024872, 0.13292117416858673, -0.25962698459625244, 0.7266116142272949, 0.44400298595428467, 1.2904810905456543, 0.015816081315279007,
   -0.26131585240364075, -0.6534237861633301, 0.7690131068229675, 0.5189324021339417, 0.46080923080444336, 0.5375433564186096, -0.5456615686416626, 0.05102942883968353,
   -1.2559434175491333, 0.6511933207511902, -1.4535008668899536, 0.7771569490432739, 0.3428666591644287, -0.07796259969472885, 0.9843116402626038, -0.149354949593544,
   1.522365927696228, -0.9233461022377014, -0.43229395151138306, -1.2776819467544556, 0.7472565174102783, -0.13659118115901947, 0.5085802674293518, -1.621009111404419,
   0.7232725620269775, 0.6899217963218689, -0.9973760843276978, 0.6022688746452332, -2.6627259254455566, -0.9275698065757751, 0.5613617897033691, 1.3953052759170532,
   0.24351578950881958, 0.07085677981376648, 0.07020247727632523, 0.022290457040071487, -0.43347716331481934, -0.17616936564445496, -0.18187306821346283, 0.12908411026000977,
   0.18462075293064117, 0.4220602810382843, -0.33839288353919983, -0.27566927671432495, -0.16344402730464935, -0.1010657325387001, -0.7249550819396973, 0.2569275498390198,
   -0.10650207847356796, 0.17249129712581635, 0.019748708233237267, 0.22691939771175385, -0.05750684440135956, 0.04307426139712334, 0.27239495515823364, 0.3126258850097656,
   -0.15957321226596832, 0.12931904196739197, 0.20388568937778473, 0.04616036266088486, -0.0008517714450135827, -0.08692999929189682, 0.45258480310440063, -0.16424526274204254,
   -0.06851717084646225, -0.29542669653892517, 0.024294307455420494, 0.12249189615249634, 0.09860537946224213, 0.02596242167055607, -0.29865705966949463, -0.4966457784175873,
   -0.150131955742836, -0.14927701652050018, -0.26137182116508484, -0.42862340807914734, -0.21817876398563385, -0.026376381516456604, -0.28972479701042175, 0.1071355864405632,
   -0.22804968059062958, -0.5336337685585022, 0.09608194231987, 0.3316078186035156, -0.32461145520210266, 0.038569219410419464, 0.35355913639068604, 0.14725595712661743,
   -0.30422309041023254, 0.2845970094203949, 0.624190628528595, 0.1423252820968628, 0.36851412057876587, -0.12639760971069336, -0.3180554509162903, 0.5315431356430054,
   0.5693222284317017, 1.390378475189209, -0.8005814552307129, -2.5998377799987793, -1.6878414154052734, 0.1983765810728073, -0.6883857250213623, 2.768148899078369,
   -1.0829706192016602, 0.4145413041114807, 0.3745861053466797, 0.29048311710357666, -0.401968777179718, -0.7065848708152771, -0.5748928785324097, 0.2973523736000061,
   1.6470670700073242, 0.37273135781288147, -0.1696000099182129, 0.8066171407699585, 1.2943962812423706, 0.6489426493644714, -0.40123260021209717, -0.7550892233848572,
   -0.5518221259117126, -0.14698787033557892, -0.0005855390918441117, 0.19259431958198547, 1.4733527898788452, 0.22366590797901154, 0.7341234683990479, 0.22102349996566772,
   -2.49959397315979, -1.7282168865203857, -0.03268642723560333, -0.41090500354766846, 1.012882113456726, -0.18754835426807404, -0.20274710655212402, -0.7228529453277588,
   -0.3810417950153351, -1.2883052825927734, 1.2884162664413452, -0.3487664759159088, 0.12699303030967712, -0.6093340516090393, -1.34795081615448, -1.2822115421295166,
   0.586180567741394, -0.4512590169906616, 0.37188059091567993, 0.6696898341178894, 0.2594420313835144, -1.1419434547424316, -0.6529003977775574, 0.9520241618156433,
   -0.8598313927650452, 0.23855724930763245, -0.18065111339092255, 0.11816874146461487, -0.871433675289154, -1.4445143938064575, 0.6715643405914307, 0.34994953870773315,
   -0.7533886432647705, -0.3051927983760834, -0.6108569502830505, -0.4784180819988251, 0.3756984770298004, -0.2736317217350006, -1.781652569770813, 1.4602738618850708,
   -0.20840489864349365, -0.20240506529808044, -1.472603440284729, 2.4550249576568604, -0.4815904498100281, -0.20814946293830872, -0.9186915755271912, -0.3686923086643219,
   -1.4130717515945435, 0.2838946580886841, 3.134089231491089, -0.43028366565704346, -2.1261754035949707, -0.19986063241958618, 0.6973031163215637, 1.9890292882919312,
   -0.3352999687194824, -1.0592339038848877, -1.241029143333435, -0.7016600966453552, 0.4326919615268707, 1.3475844860076904, 0.492432564496994, -0.07681332528591156,
   0.10326388478279114, -0.22832562029361725, 0.04445141553878784, 0.34089556336402893, 0.7852240204811096, -0.5819278359413147, -2.062649726867676, -0.6340241432189941,
   0.4588531255722046, -0.5760138630867004, -2.4518120288848877, -1.322906732559204, -0.17934520542621613, 0.055459968745708466, 0.05250053480267525, 0.6999186277389526,
   0.09531378000974655, 2.591210126876831, 1.3032201528549194, 3.3251898288726807, 0.66474848985672, -1.386391282081604, -0.41566169261932373, 0.8826008439064026,
   2.0100555419921875, 0.32525742053985596, -3.3165600299835205, 0.010131602175533772, -3.4859139919281006, 0.7361566424369812, -0.16944323480129242, 2.7955775260925293,
   -0.3158127963542938, -0.06428834050893784, 0.028809530660510063, 0.04470816254615784, 0.13297811150550842, -0.649217963218689, 0.22104406356811523, -0.3614755868911743,
   0.1615121066570282, -0.6110853552818298, 0.06303081661462784, 0.31882867217063904, 0.20897573232650757, -0.32432734966278076, -1.0340611934661865, 0.37110912799835205,
   -0.37526988983154297, -0.28937190771102905, -0.02574312686920166, 0.4216018319129944, -0.0002448136219754815, 0.30086809396743774, 0.43675750494003296, 0.08897078037261963,
   0.08915127068758011, 0.14769989252090454, -0.12601935863494873, -0.11689233779907227, -0.4673009216785431, -0.35671746730804443, -0.11921133100986481, -0.11555381119251251,
   -0.27740639448165894, -0.2026059329509735, -0.8115719556808472, 0.1983909010887146, 0.18182216584682465, -0.15853406488895416, 0.3846364915370941, 0.1724420189857483,
   0.35190168023109436, -0.0777418464422226, -0.04228295385837555, -0.45604208111763, 0.16665537655353546, 0.15006951987743378, 0.07359457015991211, -0.10176599025726318,
   0.5796070694923401, -1.064424991607666, -0.1425953060388565, -0.6315829157829285, -0.3088822066783905, -0.18843872845172882, 0.2913967967033386, -0.2551790177822113,
   0.1925376057624817, -1.2339441776275635, 0.09853251278400421, 0.2618110477924347, -0.2938876450061798, 0.20743274688720703, 0.28150585293769836, 0.8110702037811279,
   1.6781318187713623, -0.6192550659179688, -0.9488853216171265, 1.0523569583892822, 0.8309386372566223, -0.9317538142204285, -0.33846867084503174, 0.4181194603443146,
   -2.225719690322876, -0.5555210113525391, -0.7850512862205505, 0.5943407416343689, 1.1473782062530518, -0.07013606280088425, -0.5514193773269653, -1.989326000213623,
   1.1195789575576782, 1.71640145778656, 0.21052829921245575, 0.14018508791923523, -0.1566322147846222, -2.593773126602173, 0.32973790168762207, 1.0160712003707886,
   0.5944165587425232, 0.9450896382331848, 0.3303755223751068, -0.6540076732635498, -0.5613292455673218, 0.8792831897735596, -1.0873647928237915, 0.41238299012184143,
